learningRate: 0.05
architecture: 784,64,48,26
weights: 
    0.680375    -0.510283     0.282376     0.506758     0.657976    0.0666969    -0.948775    0.0038073    -0.653752     0.663478    -0.559657    -0.460469    -0.655064     0.797654     0.902454     0.652308     0.318473    -0.456638     0.781656    -0.581521    -0.951219     -0.93222    -0.220574     0.982224     0.152668    -0.284154    -0.308053    -0.685382    -0.780227     0.675146    -0.947406    -0.723027     0.817558     0.735123  -0.00216545     0.463136    -0.823224    -0.354829   -0.0351316    -0.742009    -0.534114     0.452802    0.0957982    -0.038852    -0.451144     0.739499     0.275407    -0.178314    0.0436658     0.862484    -0.404214    -0.617289     0.043186     0.338345    -0.101125    -0.907944     0.530012    0.0926423    -0.667854     -0.84908    0.0857686     -0.37712     0.631002     -0.24732            0
   -0.211234      0.42271    -0.906305     0.795082    -0.824166    -0.513788    -0.799312    -0.869151     0.574857     0.317225     0.663432    -0.897424   -0.0925733     0.838624     0.915541    0.0661361     0.704319     0.431785    -0.894443     0.150312    -0.634446     0.956833    0.0506357    -0.901239     0.224583    -0.990453     -0.22372    -0.962264     0.098571     0.625305     0.990576    0.0268012    -0.495247     0.784243     0.299427   -0.0255194    -0.582468    -0.242458    -0.281642     0.911333    -0.150735    -0.721739     0.428411    -0.194069      0.54914     0.384332    -0.765316    -0.402561    -0.266395    -0.164236   -0.0688578    -0.272594     -0.85432     0.514659    -0.420435     0.463062    0.0154748    -0.497275     0.054001    -0.470573   -0.0919353    -0.237747     0.901151    -0.376503            0
    0.566198     0.222482     0.312197      0.56119     0.168264     0.107485    -0.393492      0.47415     0.125251   -0.0268458     0.981645     0.301542    -0.326065     0.789223    -0.460872      0.15474     0.345159   -0.0970421    -0.238867    -0.395232     0.462976    -0.396086     0.377551     0.735657    -0.214121    -0.328941     0.833925    -0.969351    -0.437379     0.615102      0.42622     0.814483   -0.0886363    -0.690681     0.257226    -0.733029     0.345399      -0.7236     0.144358     -0.66389    0.0902431     0.716597     0.874511    -0.547623    -0.504084     0.758103     0.932884     0.300725     0.102103     0.234741    -0.654631    -0.403123     0.711721    -0.266263    -0.552588     0.189658    -0.217441    -0.434823     0.413553      0.27033     0.912783     0.766645    -0.929957     0.486599            0
     0.59688    -0.814283    -0.172212    -0.191728     0.861447     0.554186    -0.443109     0.756195    -0.989955     0.853294    -0.262235     0.897874    -0.384446   -0.0772994    -0.523302      0.94147    0.0238279    -0.133575     0.394164     0.573914    -0.214341     -0.16428    -0.023895     0.622608    -0.691985     0.998807     -0.84752    -0.393933   -0.0192881    -0.871045    0.0275977    -0.135416    -0.683005     0.116837    -0.267808     -0.52984    -0.585543     0.846625    -0.179268       0.9552     0.287294    -0.292553    -0.111663    -0.192254     0.515512    -0.694548    -0.847838     0.972606    -0.956807    -0.300661     0.335613    -0.940117     0.327291     0.329247    -0.978895    -0.294527     0.583765    -0.610786     0.446016    -0.855916     0.212868    -0.309574     0.567159    0.0578471            0
    0.823295      0.92313    -0.802285    -0.160681     0.356542    -0.801505     0.710238    -0.626643    0.0947277     0.163336     -0.10977    -0.258667    0.0597529    -0.103743    -0.265494    -0.716376     0.561387    -0.555626    -0.939906    -0.987185     0.655313    -0.684288     0.835407     0.656046    -0.268669     0.487128      0.92877    0.0838556     0.689398    -0.191281     0.693995     0.357123     0.201707    0.0887381     0.405326    -0.754283   -0.0517606     0.412233     0.613927     0.989732    0.0381179    -0.436453     0.149936   0.00304389     0.120722    -0.467892     0.257335    0.0517875    0.0489059     0.172059     0.607173    0.0410126     0.701454    -0.381724     0.415244     0.501451     0.987205     0.391911    0.0143429      0.14086     -0.38657    -0.083608     -0.50486   -0.0915449            0
   -0.604897     0.734938       0.6701    -0.132625    -0.227212    0.0821492     0.147701     0.964077     0.442268     0.674208     0.318234    -0.357734    -0.219704    -0.510799     0.437302    -0.778171     0.754055    -0.347981    0.0931875     0.292227     0.645261     0.471926     0.180815     0.814581     0.980653    0.0898991     -0.71659     0.687631    -0.377296    -0.507485     0.749631    -0.472842     0.508246     0.301849    -0.696618    -0.493122     0.184298     0.930242     0.594961     0.606784   -0.0236591    -0.184747     0.291116    -0.430282     -0.74301    -0.404739    -0.185542    -0.975676      0.26222    -0.794916    -0.564189     0.800094     0.144012    -0.411455    -0.712576     0.360465    -0.421558    -0.504226    -0.657507    -0.164512    -0.202404     0.661273     0.799391    0.0111954            0
   -0.329554    -0.667812   -0.0745602     0.814568    0.0208035     0.544783     0.431878     0.808399    -0.186296    -0.789337    -0.911661    -0.390877     0.313151     0.544046     0.933922    -0.958021   -0.0416735    -0.654471     0.676114   -0.0793254    -0.103548     0.459958     0.685097     0.821039     0.444475    -0.786115   -0.0125444    -0.252292    -0.701811     0.872622   -0.0858807     0.150824    -0.592026     0.740921     0.476249    -0.199447     0.697542    -0.794837    -0.638003    -0.786599    -0.941393    -0.104589    -0.654427    -0.668161    -0.060688    -0.983138     0.173449    -0.175635    -0.421987     0.802842     0.833059     0.514192     0.308366     0.378872      0.43164    -0.888137     0.822859     0.430246     0.988485    -0.559703     0.624995    -0.879208    -0.873553    -0.267262            0
    0.536459   -0.0481053     0.887725  0.000130012    -0.419154     0.670818     0.965789   -0.0257511     0.211285    -0.144182    -0.902517     0.389051    -0.342464    -0.869112     0.864424     0.290488    -0.728297    -0.476985     0.756732    -0.221022    -0.964962    -0.244895    -0.851187     0.885736     0.371084     0.113332     -0.80565    -0.511054     0.161425     -0.48834    -0.413164    -0.999222     0.220252    -0.311249    -0.124468     0.365472    -0.286552     0.116049    -0.879867     0.421312     0.616712    -0.190851    -0.836298    -0.944876     -0.96385    -0.607363     0.948782     0.358261     0.681655    -0.264676   -0.0267127     0.288228      0.27087    -0.722362    -0.398595     0.227516    -0.971168    -0.955746     0.924209    -0.300567    -0.561293   -0.0833936    -0.189533     0.889723            0
   -0.444451     0.514564    -0.078707     0.951868    -0.963182     -0.12391     0.854733    -0.649488     0.597403     0.448406     0.509487    -0.177514    -0.767085    -0.531945     0.490462     0.900475   -0.0311136    -0.951624     0.376714    -0.476724    -0.880839    -0.803536     0.910241     0.223408    -0.885228    -0.158542    -0.316494    -0.592395      0.95312     0.053993    -0.203133     0.231514     0.420815     0.145067     -0.29474    -0.411456    -0.461481    -0.419616    -0.965568     -0.12829      0.77132    -0.277643     0.977828    -0.414924    -0.459812      0.83523      0.13845     0.227413   -0.0926262    0.0697168     0.998876     -0.78402    0.0159946    -0.911063    -0.452905    -0.540345    -0.960762    -0.102162      0.97317     0.249266    -0.461669    -0.136864     0.565024     0.408492            0
     0.10794      0.55501     0.678701     0.616358    -0.795903    -0.602225     -0.98404     0.625058    -0.811459    -0.383766    -0.652275     0.350839    -0.762353    -0.872697     0.302086    -0.559563     0.726056    -0.269105    -0.561429     0.874089    -0.466092   -0.0696007    -0.208677    -0.923339    -0.293581     -0.57432    0.0574753      0.23376     0.988867    -0.967637     0.797244      0.58488     0.591766      0.57595     0.182142     0.759796      0.27603    -0.886105    -0.473948    -0.260415     0.762157     0.462498    0.0162429     0.506314    -0.724361   -0.0937816     0.209883    -0.563901    -0.850016    -0.383386    0.0190266     0.757233     0.996185     0.554933     0.130722    -0.777016    -0.092475    -0.118814    -0.912487     0.775382     0.510867     0.445598     0.955548     0.458598            0
  -0.0452059     -0.98604     0.148427    -0.296297   0.00959174    -0.976424   -0.0345913      0.54554       0.6488    -0.117144    -0.812441     0.233827    -0.734667      0.65881    0.0862336     0.661514    -0.582109    -0.456851     0.534434    -0.248921    -0.680692     0.566125      0.76929        0.559     0.245227    -0.921016     0.612479     0.851609     0.206815    -0.799529     0.633033     0.936417    -0.443759      0.92199     -0.79393     0.121866     0.756313    -0.110123     0.641935    -0.129049     -0.96181     0.643536     0.165605   -0.0563899    -0.529641     -0.22323     -0.39835     0.548791     0.843811    -0.837486     -0.56508     0.192605    -0.991032    -0.283627    -0.201787     0.298176    -0.154768     -0.14136   -0.0851301     0.507898     0.510957    -0.836386     0.520984    0.0793083            0
    0.257742     0.157225     0.525743     0.318774     0.163919     0.210447      0.45113   -0.0223128    -0.703101    -0.295213     0.234561    -0.640281    -0.921648    -0.659437     0.462907    -0.538848   -0.0208975     0.162125    -0.778203     0.197217    0.0813154    -0.240952     0.128728    -0.384858    -0.468842     0.242792    -0.498987     0.169702     0.169536     0.322175     0.915344     0.594663     -0.37982    -0.637727    -0.433964    -0.827402     0.242092    -0.543237    -0.171576    0.0264031    -0.724714     0.746737     0.607848     0.381247     0.784696    -0.905114     0.368764     0.259023      0.77144    -0.245386     0.985647    -0.516784    -0.321734     0.314327    -0.396716    -0.111294    -0.456208     0.439058      0.42963    -0.458502      -0.2321     0.227934    -0.618646    -0.674537            0
   -0.270431     0.472924    -0.755022    -0.722349     0.438007      0.17545    -0.411887     0.811882       0.2735     0.686816    0.0717086     0.348973     0.273257     0.975683     0.292218     0.262662     0.227761   -0.0266146     0.618346     0.270447     0.864563    -0.365596    -0.947485    -0.484089     0.467861      -0.8764     0.878764     0.765405     0.332563     -0.89138    -0.664147   0.00590592     0.483793     0.644447    -0.628786     -0.52268     0.306749    -0.227615    -0.510987     0.239976     0.626788     0.885438     0.196898    -0.457916    -0.920189     0.479265     0.728697     0.419713    0.0551525    -0.523059    -0.449301    -0.160463     0.386045  -0.00549408    -0.149846    -0.385378     0.262875    -0.785635    -0.911062     0.736436     0.018087   -0.0183216    0.0874911     0.618222            0
   0.0268018     0.487454   -0.0325153   -0.0941903    -0.380458    -0.190089     0.149191      0.73312    -0.539723    -0.137568    0.0110886     0.507787     0.394304    -0.939306     0.401816     -0.79194    -0.554405    -0.942821     -0.49827     0.888808     0.503482    -0.273589    -0.796269     0.978368     0.406863    -0.731007    -0.430929     0.450577     0.891284     0.401782     0.183656    -0.468548     0.746878     0.420062    -0.153543    -0.980697     0.461689    -0.837883     0.663387     0.432369     0.251471    -0.537295    -0.395063   -0.0471159    -0.103137   -0.0591897     0.840294     -0.01446    -0.833051     -0.42291     0.858579     0.316903     0.927748      0.57422    -0.304704    -0.837037    -0.699308    -0.353275    -0.784344     -0.64841     0.842251     0.876718     0.760238    -0.324223            0
    0.904459     0.845144    -0.838409    -0.892705     0.633291   0.00131722     0.234344     0.795262    -0.540218    -0.727208    -0.591692    -0.915651    -0.850749    -0.602848    -0.864825    -0.967647     0.209924    -0.932093     0.163807    -0.530945     0.936714     -0.16957     0.826789    -0.821328    -0.791432     0.766277    -0.261715    -0.907998     0.903437    -0.798674     0.841801    -0.131896  0.000580838    -0.345704    -0.177374     0.728347     0.919256    -0.990927     0.557451    -0.355171    -0.293472     0.824206    -0.309392    -0.658482    -0.110485     0.123628    -0.931636    -0.966687    -0.975529    -0.881654    -0.301971    -0.733699     0.289223    -0.230822     0.794288     0.821685    0.0472503    -0.714455    -0.335306    -0.781874    -0.629119   -0.0869818    -0.294048     0.856252            0
     0.83239    -0.807192    -0.970386     -0.93453     0.825365     0.157754    -0.453699     -0.92563     0.847317        0.987     0.709407     0.975615    -0.751703    -0.461694    -0.924028     -0.38723   -0.0803278    -0.300329    -0.356083    -0.942596    -0.917102    -0.320817    -0.386763     0.831652    -0.918996    -0.653078    -0.563215     0.736161    0.0454691     0.574271    -0.494279      0.54897    -0.747507     -0.90358    -0.478775     0.139625     0.248116   -0.0773138    -0.245906     0.848111     0.974263     0.721942    -0.776895     0.913016    -0.361642    -0.651273    -0.569132    -0.290555    -0.579284    0.0394572     0.682186     0.436033     0.200088    -0.247575      0.55824    -0.591801    -0.534845      0.99894    -0.170844    -0.166418    -0.574226    -0.681891     0.504313    -0.383278            0
    0.271423     0.575285     -0.57471    -0.773585    -0.768859     0.277026    -0.214727     0.507104     0.671643     -0.93528     0.252623     0.285287    -0.462407     0.302768   -0.0529982     0.317582     0.416948     0.890494    0.0860373     0.858181   -0.0365061    -0.790117      0.51113    -0.890485    -0.589144    -0.593674     0.439733      -0.4855    -0.694088    -0.905987    -0.525482     0.365759     0.321472    -0.641647      0.59328     0.169305     -0.38393     0.690501     0.669352    -0.540736      0.86008    -0.239134     -0.68908     0.810386     0.888273     0.975673     -0.84274     0.553622    -0.879803     0.160303    0.0740977     0.764116    -0.159398     0.477911     0.926592    -0.266307    -0.463726    -0.861934     -0.80111     0.840564    -0.954262     0.110616    0.0321943    -0.304845            0
    0.434594      0.89287    -0.925187     0.878242     0.444195     0.148815     0.067295    -0.779161     0.993016     0.338009     0.253389   -0.0971698    -0.225304     0.501648    -0.704459     0.882162     0.951345     0.467149     0.151997     0.906288    -0.477519    -0.389572      -0.4394     0.916959     0.464199     0.331758    -0.220836    -0.921214    -0.942272    -0.551064    -0.629656     0.409774    -0.390794     0.817536     0.648056     0.290224    -0.588037     0.572353    -0.607406    -0.547105     0.845117    -0.739354    -0.821935    -0.379089     0.997063    -0.349032    0.0555284     0.588547    -0.144005    -0.733952     0.954072    -0.421585    0.0125901     -0.34858      0.17385    -0.409756    -0.625411      0.14637    -0.754735     0.887077     0.777008     0.940785    -0.183786    -0.610149            0
   -0.716795    -0.797039    -0.461521    -0.746375     0.623418    -0.810304    -0.747364     0.364258    -0.759365    -0.434102     0.921483       0.9172    -0.168097    0.0675641    -0.271302    -0.236163      0.10881    -0.393586   -0.0707699     0.158929    -0.263207    -0.399993     0.303678    -0.626224    -0.988466   -0.0629778     0.311418   -0.0534411     0.999935     0.620654    -0.639787      0.77316     0.121962    -0.873706     0.260475     0.924606    0.0382589     0.712028    -0.715092   -0.0342527    -0.532596     0.524247      0.60783     0.483989     -0.19747    -0.824986     0.989263     0.182137     0.528627     0.313715    -0.213254     0.344168    -0.880586     0.736174    -0.910304    -0.828118    -0.200412     0.579679     0.151361    -0.363922     0.699976    -0.489605    0.0625998     0.613812            0
    0.213938    -0.450207    -0.356036    0.0771358     0.951615    -0.581444     0.459034    -0.296875    -0.641816   -0.0289121     0.479119     0.748588     0.168026     0.574146    -0.372097    -0.741811     0.319688     0.426559    -0.674196    -0.786461     0.275021    -0.360912    -0.440605     0.800284     0.537762     0.804986    -0.488563       0.8455   -0.0717821     0.216813    -0.283113    0.0822928    0.0818173    -0.552226    -0.704962     0.758815     0.346685    -0.614342    -0.940554    -0.321995     0.321166     -0.20067      0.22051     0.199838    0.0129381    0.0726253     0.225908    -0.588882   -0.0483423    -0.502307     0.571292     0.866048    -0.877163     -0.84403    -0.413395    -0.852706     0.739158     0.755808    -0.239336     0.581545     0.654184      0.16232     0.671693    -0.835729            0
   -0.967399    -0.521358     0.470295    -0.649008     0.922812    -0.931634      0.57363    -0.107892     0.500593    -0.639754    -0.389221    -0.191932    -0.507354     0.739718     0.223167    -0.931201     0.554498   0.00732195     -0.82017    -0.349212     0.901874    -0.925417    -0.413885     0.293757   -0.0801596    -0.647756    -0.137897      0.12581    -0.584944   -0.0985995     0.852855    -0.132601     0.498727    -0.841676    -0.173026     0.774798     0.976217  -0.00646753     0.836912     -0.64417    -0.170254    -0.684872   -0.0769896     0.754522     0.316305     -0.93857    -0.439689     0.748284    -0.198807    -0.328834    -0.543752     0.960868     0.660499     0.299368    -0.427127    -0.484594    -0.271232    -0.620987    -0.682733    -0.386035    -0.237941     0.836615    -0.184646     0.641888            0
   -0.514226     0.619486    -0.941979    -0.439625      0.90186    -0.092654     0.944656    -0.831683     0.640181    -0.293297     0.336127    -0.207644     0.962113     0.764084   -0.0164145      -0.8957    -0.358391     0.845118     0.848154     0.549894    -0.827479     0.324996    -0.816925    -0.294174     0.897328     0.766804  -0.00410745    -0.134049      0.94963     0.244839     0.221911     0.222608     0.558286    -0.499286    -0.401194     0.433618     0.157529    -0.371843     0.974305     0.879415    -0.452173      0.67627    -0.679115     0.100768     -0.46557    -0.497301    -0.749706     0.985881     0.192894    -0.214271    -0.673901     0.993315     0.748107     0.271888     0.311578      0.56415     0.350977     0.635316    -0.632167    -0.325915    -0.994922    -0.308105     0.179603    -0.534696            0
   -0.725537    -0.809915     0.862676     0.375533     0.959332     0.538602    0.0526205     0.518701     0.607774     0.584329     0.177424    -0.490781       0.5103    -0.526051     0.559301     0.559219    -0.745459    -0.972982     0.680922     0.814241    -0.522375     0.810562    -0.144894     0.145773    -0.529467    -0.445092    -0.284102      0.41583     0.297383    -0.589611   -0.0549506    -0.820531      0.55324    -0.855207    -0.940396    -0.102992     0.274555     0.438659     0.371324    -0.291862     0.492804     0.801165    -0.611399    0.0076036    -0.369866    -0.538905    0.0233677     0.411157     0.916355      0.14106    -0.972395     -0.40463    -0.519857     0.826305     0.182121   -0.0735533    -0.948447    -0.175215     0.435443     0.159789     0.574221     0.820216    -0.745688   -0.0225027            0
    0.608354     0.493461     0.800325     0.469662     0.574005     -0.43365    -0.168587     0.369501    -0.319462     0.876083    -0.393901    -0.994484     0.538267      0.57901     0.372523    -0.806746    -0.432962      0.64546     0.234457     0.615441    -0.838034     0.375761    -0.302709     0.708914    -0.986811     0.975554     0.683995     0.708521     0.863781     -0.99524     -0.12144    -0.184765     0.149044     0.523429   -0.0415076     0.566865    -0.577902     0.113518     0.140977    -0.996396     0.257369     0.352988     0.344491     -0.83688    -0.256332    -0.491473     0.642393    -0.783145     0.471128     -0.45831      0.72847    -0.560524    -0.828672   -0.0910853     -0.49107   -0.0684642     -0.86772     0.333708      0.84093    -0.963274     0.992836     0.133116    -0.440848     0.593677            0
   -0.686642    -0.445573    -0.918488    -0.438814     0.839737   -0.0860901     0.292772     0.576555    -0.721657     0.526754   -0.0736098    -0.863057    -0.692595    -0.524149     0.117484     -0.86264     0.149378     0.477827    -0.679099     0.377938    -0.849598     0.222221    -0.474511     0.335181    -0.748967     -0.07232     -0.85245     0.958796    -0.933722     0.231129     0.639754    -0.592626    -0.465384     0.167569    -0.485841     0.935019      0.38836     0.344948    -0.426122     0.222891  4.89657e-05    -0.569811     0.347435     0.177896     0.778773    -0.581624    -0.369732     0.571879    -0.669861     0.938343    -0.611099    -0.526054    -0.430237     0.795324    -0.796018      0.53223     -0.14751    -0.675027    -0.245923     0.104112    0.0463672   -0.0427965     0.433311    -0.814056            0
   -0.198111    -0.653399    0.0227727    -0.749134     0.803005   -0.0283009     0.103495    -0.500946    -0.915714    -0.837277    -0.111088    -0.311391     0.265316    -0.693917     0.480253    -0.317569     0.379474   -0.0678289     -0.38624   -0.0142564     0.984195    -0.767342     0.408858    0.0128095     0.741998    -0.424967    -0.849504     0.893761    -0.862115    0.0827927     0.620558     0.636546     -0.63715     0.757825     0.691833     0.910146   -0.0781572   -0.0824389    -0.273125    -0.827776     0.481985     0.239603    -0.347149    -0.939669    -0.920269     0.989026    0.0210464    -0.724935    -0.315416    -0.032505   -0.0348609    -0.590578     0.111439    -0.271957     0.470855     0.971941      0.59805    -0.255021    -0.136717     0.111818     0.851877    -0.283697     0.773692    -0.869634            0
   -0.740419     0.875428     0.488112    -0.682785     0.901597    -0.388461     0.783474   -0.0978009     0.916935    -0.231488     0.875143    -0.393534     0.622516    -0.976497     0.366144     0.670032    -0.805926    0.0988342    -0.294668    -0.296672     0.647875     0.203495    0.0388161    -0.912131     0.973007     0.850787    -0.917821    0.0306034    -0.682766    -0.625407     0.554689    -0.959158     0.984599     0.184898     -0.72473     0.794082     -0.25146    -0.514511    -0.896193    -0.544878    -0.651578    0.0866348     0.312285    -0.520906    -0.363395     0.117232    -0.902673    -0.779813  -0.00427089     0.916412     0.100439    -0.849936    -0.142389    -0.569653    -0.709062     0.232699     0.816183    -0.722345    -0.649448    -0.470092     0.198957    0.0319591     0.436011    0.0767704            0
   -0.782382     0.521724    -0.464865     0.399568    0.0974165     0.243439     0.664873     0.116037    0.0340188    -0.755715     0.118245    -0.411647    -0.779403    -0.351519      0.95388    -0.244683    0.0707697     0.213879      0.41933     0.702595     0.576214    0.0934295      0.54602   -0.0602428     0.465054     0.110717    -0.263694    -0.987581     0.494462     0.928935     0.973954     0.112083    0.0441767     0.121047     0.329851    -0.812917    -0.188503     0.554217    -0.784614    -0.814758    -0.295405    -0.168099    -0.536415     0.401226     0.907482     0.189744    -0.829544    -0.154777    -0.363041     0.264571     0.568034    -0.165716    -0.578839     0.572788     -0.64883   -0.0383303    -0.672653    -0.157134     0.326588     0.349884    -0.728363     0.513674  -0.00904077     0.720801            0
    0.997849    -0.806637     -0.34664    0.0087985   -0.0265339     0.369564    -0.621319     0.867791     0.353162    -0.183736    -0.711186    -0.998096    -0.892818    -0.885578    -0.761578    -0.643557    -0.385812    -0.936838    -0.926659    -0.177298     0.671885     0.138644     0.865335    -0.278487     0.622504     0.156848     0.397835     0.051387     0.394659     0.875903    -0.262905    -0.468214   -0.0992531    -0.935075     0.761087     0.235772    -0.425746     -0.95665    -0.987965   -0.0739884     0.667074    -0.935582     0.891223    -0.415423   -0.0188911     0.396826      0.93311    -0.625102     0.235018     0.146477     0.891145     0.756185     0.701648    0.0713221      0.29952     0.474331     0.229298     0.564542    0.0223593     0.149365     0.330952     0.477674     0.117261     0.408854            0
   -0.563486     0.962217    0.0652932     0.157651     0.510789    -0.894147     0.914055    -0.130356    -0.429317   0.00889231    -0.992021     0.294447    -0.886755    -0.227022    -0.733749   -0.0499658    0.0864311     0.397234    -0.759913    -0.733989     0.872802    -0.973362    -0.127195   -0.0557647    -0.786541    -0.352441     0.326023    -0.714089     0.223202    -0.460621     0.721256    -0.974958   -0.0530841    -0.438604    0.0398195     0.350533   -0.0786595    -0.515463    -0.661989     -0.73248     0.396401    -0.406475      0.69252    0.0582622     0.260528     0.882747     0.402411    -0.757541     0.622844     0.691332     0.930231     0.537752    -0.357034    -0.518692     0.264223     0.375997     0.868051       0.4874     0.467863    -0.535119     0.920684    -0.889244      0.39556    -0.178262            0
   0.0258648     0.690546    -0.129568   -0.0890465    -0.836253     0.510066    -0.508061    0.0859446    0.0731931     0.853689   -0.0871712     0.293201    -0.855216     0.288547    -0.345913   -0.0787364    -0.069716    -0.800636    -0.847377     0.835053     0.572205      0.96307    0.0837731     0.940233     0.151015    -0.649952     0.422972    -0.266106    -0.717019     0.723264     0.851637    -0.607981    -0.948262    -0.243969     0.234385     0.834563    0.0961802    -0.620745     0.155214       0.7375    0.0354726    -0.313089    -0.291686    -0.454386    -0.220944   -0.0532473    -0.827802    -0.311594    -0.340526     0.802181    -0.284802     0.273008  -0.00586644     0.278659    -0.121651     -0.57482    -0.124964    -0.281286    0.0125398    -0.246283    -0.878399     0.925993     0.746113      -0.1102            0
    0.678224    -0.316921     0.935736    -0.484443    -0.368558    -0.563739    -0.570094    -0.128402     0.699409    -0.520258    -0.270843    -0.458565    -0.547881     0.912076    -0.859124    -0.991249      0.93266    -0.393476     0.854997     0.241181     0.720666     0.206424    -0.355239    -0.296263    -0.224827     0.872694    -0.910217     0.366005     0.614432     0.551049    -0.210311    -0.191241    -0.281695     0.800048    -0.241079    -0.301092     -0.24897    -0.311479   -0.0230965     0.184002     -0.86704     0.517219   -0.0129789     0.545725     0.529965     0.136325     0.208517     0.196584    -0.721316   0.00896079    -0.513068    -0.861104    -0.255166    -0.590333    -0.801604     0.566387     -0.24069    -0.342816     0.354506     0.300285     -0.58328    -0.899446    -0.251738    -0.838465            0
     0.22528     0.384927     0.158988   -0.0472674     0.686623    -0.407935    -0.885257  0.000493063     -0.85446    -0.673883     0.671411     0.397023    0.0206712    -0.388398    -0.818209    -0.983677     -0.20925    -0.170981    -0.654356     0.416323    -0.761643     0.983471      0.92344    0.0429959     0.438042    -0.342894    -0.897697    -0.676353    -0.678227    -0.835317     0.711832    0.0518434     0.451669    -0.654361    -0.660753    -0.674986     0.338873     0.242078    0.0563686    -0.821147    -0.754334    -0.128214      0.12093     0.864194    -0.190332      0.26708     0.637095    -0.160102    -0.643355    -0.472904    -0.138627    -0.734842    -0.211354     0.995967     0.843788    -0.160942    -0.116474     0.990125    -0.478136  -0.00569139    -0.171252    -0.126991     0.296711     0.445235            0
   -0.407937    -0.086625    -0.817372    -0.527857     0.332011    -0.382448     0.098447    -0.439906    -0.801556    -0.173157    -0.105526    -0.405256    -0.181281    0.0777705     0.193215    -0.923691    -0.724557     0.102322   -0.0862437     -0.56018    0.0351817    -0.433016    -0.538676      0.67589     0.936894    0.0211066     0.256897    -0.235457    -0.154398     0.338366     0.277857    -0.793498   -0.0368988    0.0653496    -0.508389    -0.898466    -0.558421    -0.344344    -0.700428     -0.92639    -0.874284    -0.596492    -0.417175  -0.00200924     0.274972    -0.295145    -0.894918     0.989131     0.761831    0.0369221     0.060567     0.869885    -0.294145    -0.987604     0.325738     0.614838     0.657596     0.283891    -0.573908    -0.975954    -0.965616     0.692638     0.816156    -0.623602            0
    0.275105     -0.13051    -0.236476     0.323828    -0.507111     0.990447   -0.0132022    -0.372207     0.709454    -0.666964     0.466922    -0.560691    0.0676729    -0.165223    -0.382426     0.950526   -0.0435117     0.472949     0.249161    -0.184905    -0.493676    -0.957856     0.620866    -0.673654    0.0831876     0.871502    -0.757737     0.972072    -0.404856     0.680004     0.817287     0.673343    0.0352998   -0.0831137     0.491113     0.169069     0.165487    -0.464854     0.797636     0.138426     0.420255    -0.775333     0.875358    -0.646529    0.0454761     0.441777     0.360679      0.16919    -0.678007       0.7083     0.822544    -0.801221    -0.927875     0.738914      -0.7805     -0.72814    -0.656925    0.0463979    -0.199478     0.444369     0.629589     -0.20902    -0.684579     0.219382            0
   0.0485744     0.308751     0.356703     0.792052    0.0431653     -0.20944     0.824981      0.37385     0.240267     0.489453    -0.438359    -0.861644    -0.919576      0.50786   -0.0837028      -0.6999    -0.647859     0.273393    -0.594262     0.429138      0.89367    -0.700817     0.758848    -0.300959    -0.830627    -0.855767    -0.968927     0.407503    -0.988829   -0.0265973     0.405828    -0.591064    -0.346624     0.434377     0.744573    -0.429269    -0.712888    -0.345689    -0.329704    -0.832191     0.283784     0.435333    -0.729134    -0.132763      0.93039     0.799187     -0.10557     0.891685     0.405316     0.699155    -0.531454      0.30617    -0.509899    -0.385757     0.259037    -0.659491    -0.129269     0.381656     0.536206    -0.864831      0.44218     0.789401     0.791851     -0.64631            0
   -0.012834    -0.352034     0.852729     0.339518    -0.895202     0.699701    -0.753852    -0.475829     0.640713    -0.498949    -0.787293     0.237009     0.599016     0.566971    -0.369482    -0.701862    -0.970499     0.754341    -0.993056     0.732048    -0.319557    -0.961089     0.642139     0.490471     0.917547    -0.888991     0.540306    -0.547826     0.468306     0.830881    0.0274882    -0.266386    -0.528653    -0.632755    -0.205007    -0.391587     0.625877    -0.414102     0.894534     0.679618     0.102057      0.21876     0.873941     0.567709     0.531962     0.300117   -0.0804603    -0.986545    0.0237965     0.242007     0.496378     0.669979     0.849867    -0.399059     0.613183   -0.0246968    -0.763962     0.778905    -0.231414    -0.140466    -0.168017     0.353911     0.615547     0.387594            0
     0.94555     0.200984     0.688964     0.138396     0.513693      0.53523    -0.581324    -0.563808    -0.476842      -0.4563     0.555261    0.0484317    -0.619175    -0.621177    -0.448504     0.992505     0.914815     0.818486   -0.0747252      0.73577     0.402777     0.502102     0.305963    -0.852615    -0.472338    -0.914494     0.229718     -0.28022    -0.106668     0.552918    -0.268594    -0.175832     0.443274    -0.342142   -0.0326379     0.969621    -0.136971    -0.259691    -0.840367     0.351828     0.478862     0.120078    -0.779069     -0.31469     0.984788     0.458638    -0.465872     0.993555     -0.10011     0.511142     0.655604     0.712971     0.380491     0.117787     0.651181    -0.616277    -0.834067    -0.524116    -0.210993     0.884666      0.25459   -0.0882282    -0.558129     0.952985            0
   -0.414966    -0.740048     0.244428    -0.207818     0.624011    -0.538621      0.79077    -0.651901    -0.548448    -0.654729    -0.340876     0.527406    -0.262039     0.638747    -0.219278     0.590587     -0.37616     0.796423    -0.837529    -0.791884     0.928708    0.0542883     0.907661    -0.415223     0.540457     0.257606    -0.774576     0.896449     0.172595     0.485647     0.992664    -0.590256     0.873628    -0.876872    -0.379895     0.936203  0.000559936      0.77036    -0.209571      0.58912   -0.0995048    -0.755518    -0.565432    -0.077639      0.96654    -0.808176    -0.156788     0.249946    0.0870098    -0.565521     0.441833    -0.405602     0.760971    -0.108118     0.860437     0.568025    -0.100437     0.425911     0.460415    -0.165397     0.880897    -0.293993     -0.39768    -0.751608            0
    0.542715     -0.83747    -0.225978     0.291386    -0.858383     -0.42421    -0.899119    -0.125317     0.238115     0.949457     0.722194    -0.940505     0.831932    -0.964973    -0.879021    -0.801692  -0.00161643     0.802725     0.383657    -0.744676    -0.200396    -0.764625      0.55238    -0.286121    -0.967681   -0.0475368    -0.776187     -0.14022     0.421426    -0.114834     0.824355     0.965174     0.892162     0.512266     0.500253     0.196957    -0.835604     0.166282     0.928966    -0.447896    -0.126623     0.941117     0.851769    -0.847215     -0.92785     0.135346    -0.942011     0.240868      0.93117    -0.688277     0.495255     0.885959    -0.134139    -0.310122    -0.839743     0.434958    -0.724725    -0.322498    -0.258244    -0.891199     0.370326    -0.782953     0.180568    -0.199564            0
     0.05349    -0.244006     0.367666    -0.245246     0.717789     0.933005    -0.565364    -0.938749      -0.2883     0.159934     0.902985    -0.600729    -0.381529    -0.493873     0.853582    -0.567363     0.640871    -0.446098     0.363846     0.609858     0.936685    -0.567498    -0.902714    -0.775954     0.234081    -0.488933    -0.712806      0.95354    -0.117801     0.584989    -0.471349    -0.590952    0.0350396    -0.766245    -0.850496     0.729417     -0.86094    -0.145797    -0.314316    -0.907812     0.241019    -0.417424     0.237174    -0.808375    -0.739573    -0.635143     0.744011    -0.570347    0.0498747    -0.872244     -0.32537     0.470204     0.376676    -0.327281    -0.218138    -0.393293    0.0734583      0.35783    -0.123479     0.660048     -0.23453     -0.64263    -0.602576     0.414181            0
    0.539828    -0.726088    -0.607145     0.495883    -0.366397    -0.515045    -0.243821     0.893639    -0.899648     0.228127    -0.153317    -0.238767   0.00329646     0.297559     0.866955     0.251796    0.0417307    -0.614636     0.696905    -0.040805    -0.751984    -0.379586     0.676951    -0.856223    -0.214316      0.33655     0.837903     0.748059     -0.62059     0.685533     0.625697    -0.653838     -0.57013    -0.954883    -0.173825    0.0580692    -0.243127    -0.339763    -0.567637    -0.539152   -0.0613144     0.888018     0.600173     0.865971    -0.558513    -0.031406     0.444862    -0.201264   -0.0691789    -0.403007     0.876754     0.787004     0.769939     0.608255     -0.34135    -0.133798     0.744795    -0.715069    -0.624715      -0.6575     0.391858    -0.130379    -0.876442     0.326184            0
   -0.199543     0.320437    -0.700236    -0.389843     0.305536     0.786237     0.552099      0.85237     0.535014    -0.345756   -0.0432455    -0.580786     0.910287    -0.624409     0.583886     -0.34054     0.977486  -0.00565425     0.605454     0.452541      0.88092   -0.0055769    -0.318892     0.329022    -0.436523    -0.804745    -0.274837    -0.970519    -0.409039    -0.792951     0.739699     0.559836    -0.487658     0.874538    -0.934171     0.369555     0.406487     0.623047     -0.24261     0.578507     0.148664     0.687854     0.459617     0.534032     0.861434     0.230232     0.426753    -0.500109      0.70261    0.0663376     0.480902    -0.630825     0.544127    -0.995795    -0.236459    -0.676336    -0.180933     -0.88344    -0.828614    -0.349701    -0.861773     0.444981     0.562401      0.12459            0
    0.783059    -0.769718     0.612644    0.0324021     0.155797     0.108455    0.0228368     0.873133       0.9852     -0.15325   -0.0253059     0.748244     0.891733    -0.518191       0.1458     0.695396    -0.131368     0.535054   -0.0178076    -0.119694     0.801248    0.0669052    -0.850199    -0.260043    -0.298058    -0.365333    -0.833706     0.718945    -0.785238      0.69361    -0.135496     0.414876    -0.481168     0.878231    -0.479742    -0.793262     0.445809     0.626592     0.174698     0.332165    -0.132193    -0.531986    -0.565928    -0.266291    -0.657468     0.844105     0.472708     0.849366    -0.894973    -0.395302     0.225329    -0.690259    -0.236584     0.667225     0.632023      0.22133    -0.663667     0.572195   -0.0345409     0.396484     0.783554     0.339049     0.485381    0.0304904            0
   -0.433371     0.762066     0.360913     -0.59831     0.253145     0.294866     0.905457     0.626759    -0.439371    -0.909441     0.857771     -0.73098    -0.602398     0.358252     0.268771     0.460638     0.487326    -0.603264    -0.801365    -0.151997     0.751498     0.346825     0.880681    -0.877856    -0.807454     0.605543    -0.592689     0.198636    -0.729307    0.0873174    -0.190629    -0.122464    -0.823252     0.465179     0.672173    0.0773717    -0.781438    -0.177641     -0.90425     0.893217    -0.809843    -0.649277     -0.79489    -0.181158     0.333762     0.909369     0.287132     0.784276    0.0977701     0.174082     0.735332     0.103906     0.698383     0.182475     0.353948    0.0291647    -0.954513   -0.0683444    -0.409059     -0.30591     0.234108    -0.253661     0.883951      0.99902            0
   -0.295083       0.1654    -0.538136    -0.282549   -0.0611731    -0.212445    -0.213558     0.647632     0.994796   -0.0729638     0.365062    -0.496437    -0.940464    -0.227258     0.719061    -0.307283      0.18741    0.0327489    -0.230739     0.921596     0.817634     0.824853    -0.492103     0.507694    -0.227956      0.96185     0.463111    -0.878517    -0.505602    -0.591613     0.581536    -0.572059     0.512923    -0.471166    -0.111084    0.0979025     0.325743     0.632118    -0.685159    -0.776664     0.855191      0.51206    -0.849775     0.875536    -0.253639    -0.646178     0.495117    -0.466796     0.729897     0.184684    -0.821069    -0.364523    -0.166311    -0.226617    -0.442166    -0.854651     0.866318    -0.597895    -0.157123    -0.131575    -0.490892       -0.642    -0.732113   -0.0217783            0
    0.615449    -0.578274     0.642413    0.0978728   -0.0188383    -0.733791     0.569138     0.947503     0.832517     -0.16625    -0.315899     0.723859    -0.859975    0.0201148     0.221772    -0.691407     0.788304     -0.77757     0.626109   -0.0622907     0.884146     0.746088    -0.236962    -0.428391    -0.217053   -0.0180935    -0.397258     0.455106     0.260231      0.26788     0.370261   -0.0360766    -0.228675     0.974623    0.0419427     0.346362    -0.306076    -0.450726     0.928792     0.177108    -0.157931    -0.810057    -0.342823    -0.353275   -0.0214042    -0.807189     0.903579    -0.441189     -0.47144     0.644155   -0.0924846     0.745774     0.962789     -0.58035     0.190258     0.629529    -0.198513     0.571135     0.799146    -0.769934     -0.79068     0.657158   -0.0107849     0.646036            0
    0.838053     0.336651     0.785708    -0.371891     0.484286    -0.428108     -0.30927     0.133863    -0.767727     -0.84472     0.110394     0.554307   -0.0648104     -0.33898    -0.784227    -0.222256   -0.0957257     -0.71277     0.284672    -0.295632    -0.285008     0.556707     0.394452     -0.76834    -0.396598    -0.987973     0.846708     0.715135    -0.423395      0.18162     0.283888    -0.756627      0.49822     0.823552     0.265913    -0.753323    -0.165368    -0.487144     0.765102    -0.649103    -0.949763     0.111406    -0.483969    -0.370759      0.22204     0.885044     0.442419     0.337898     0.220783    -0.665614     -0.19057    -0.131978     -0.46173    -0.339614     0.280794     0.762857    -0.418239    0.0697211    -0.210168    -0.465346      0.27983     0.856955    -0.084269    -0.306336            0
   -0.860489    0.0577697    -0.463833    -0.404303    -0.616979      0.93637     0.853737      0.86847     0.987811    -0.734955    -0.381549     0.406393     -0.16577     -0.72561    -0.985398    -0.425719     0.138754    -0.500102     0.921258     0.824181    -0.659885    -0.564719    0.0684972     0.424653    -0.763639     0.295788    -0.757725    -0.795063    -0.447873    -0.140226     0.951843     0.837715    -0.877871     -0.65363    -0.463029    -0.611873     0.737706     0.204471    -0.292562    -0.323771     0.700308     0.771723     -0.67171     -0.50354    -0.250434    0.0047942    -0.449352    -0.878249    -0.415516     0.450732    -0.866997     0.213891     0.845941     0.424803      0.73168    -0.264407    -0.759162     0.548476    0.0813443    -0.244499    -0.713873    -0.701215    0.0840871     0.367662            0
    0.898654    -0.375313    -0.819264     0.351501    -0.395421    -0.544096     0.822383     0.311761    -0.926848     0.399647    -0.394416     0.641059   -0.0280723    -0.912321      0.95047    0.0710001    -0.102886    -0.171156    -0.444661     -0.90582     -0.37906    -0.653906    -0.933284   -0.0546149    -0.205286     0.921108      0.91416    -0.595002     0.260166    -0.111081     0.730438    -0.262919     0.893287    -0.899083    -0.697583     0.270968     0.732183    -0.738698    -0.786293    -0.853981     0.309473     0.713276    -0.734993    -0.869286     0.787263    -0.632154     0.892842     0.740948    -0.945628   -0.0421302     0.694262    0.0899426    -0.919523    -0.844176     0.279952     0.801411     0.601075     0.150814    -0.054024    -0.133856     0.909344    -0.832447    -0.948185     0.259473            0
   0.0519907     0.886444    -0.570405     0.705244     0.435901  -0.00955236    -0.849517     0.836989    -0.409543     0.126368    -0.410487     0.302895    -0.896785    -0.764834    -0.156324     0.035627    -0.776038     0.713789     0.610476   -0.0802776     0.990014    -0.804205     0.951207    -0.968056    -0.851875     0.816854    -0.641856     0.559968     0.504823    -0.601807    -0.999243     0.325663    -0.419963    -0.728694     0.560932    -0.994508    -0.818683    -0.101486     0.824554    0.0304806     0.371404     0.910363     0.746849     0.829079    -0.764915   -0.0422972    -0.331673     0.749017    -0.830376    -0.167921    -0.619277     -0.26593    -0.346945    -0.183645     0.867143     0.910151    -0.679081    -0.174471     0.550495    -0.883801   -0.0659301    0.0192744    -0.412575    -0.142076            0
   -0.827888     0.536411    -0.993538   -0.0533106    -0.694166    -0.995265     0.428085    -0.239422     0.488405    -0.374709      0.22923    -0.785539     0.326876    -0.985893     0.237769    -0.357226    -0.306748      0.50722    -0.898913    -0.521328    -0.758011    -0.490136     0.654612     -0.28159     0.189951     0.645535     0.104377     0.326079   -0.0328176     0.758763     0.804698    -0.294962     0.620856    -0.495305     0.363799    -0.837075     0.713923    -0.801997    -0.455646    0.0320589    -0.469945    -0.912171       0.2513    -0.749018    -0.940196    0.0662572     0.110957     0.870035     0.384268    -0.878103    -0.410749      0.17476     0.500986    -0.275829    -0.695448     0.250999   -0.0303246     0.927489     0.398705     0.369466    0.0482145      -0.8646     0.899441   0.00954159            0
   -0.615572    -0.755828    -0.761242     0.911876     -0.49356      0.36325     0.767147     0.480078     0.713333     -0.89365     0.941711    -0.566585   -0.0659589     0.851763   -0.0659448     0.176206     0.538723    -0.326039    -0.596507     0.646532    -0.206541      0.67109    -0.750209     0.651211     -0.30303     0.685415   -0.0899477     0.267616     0.209797    -0.866575   -0.0476508     0.959543     0.451573    -0.398369    -0.098777    -0.295414    -0.110288    -0.110541    -0.811991    -0.974562       0.8573     0.390473    -0.414108     0.231482    -0.684444    -0.129439    -0.856867     0.726829     0.247264     0.743599    -0.979639    0.0832573     0.829238     0.427712    -0.408469     0.365561    -0.047948    -0.213871     0.313995     0.540229     0.914422    -0.140552     0.231418     0.724778            0
    0.326454     -0.92347    -0.707729    0.0807773     0.395233     -0.47095     0.203103      0.35569    -0.801769    -0.289303     0.766937     0.812114     0.613516    -0.290886    -0.597023    -0.405154    -0.521497     0.740807     0.291398    -0.266037    -0.532363    -0.993643    -0.193688     0.177717    -0.388303    -0.628238    0.0740426   -0.0255343    -0.197794    -0.191445   -0.0541937     0.505135    -0.866723    -0.583901     0.620556   -0.0975003     0.455872    -0.662827     0.195871     0.738623    -0.135793     0.712086    -0.874858    -0.163317    -0.134893     0.418798     0.691692     0.160174    -0.914021     0.973139    -0.591673      0.32944     0.141269    -0.357339    0.0492643    -0.163402    -0.627529     0.650314   -0.0140618     0.275989    -0.491737    -0.160509    -0.158264     0.835422            0
    0.780465    0.0298719     0.806787    -0.583649     0.879839    -0.428915    -0.741198    -0.869921    -0.831057    -0.498626     0.835329    -0.780023    -0.134857     0.593117    -0.389708    -0.163971      0.26029     0.152681     0.335544    -0.905887    -0.596046     0.885625    -0.648097    -0.572676     0.169273     0.621089    -0.211627    0.0346001    -0.169037     0.763471    -0.316741     0.520348    -0.230099    -0.971877    -0.677563      0.72979    -0.863979     0.311522     0.685323    0.0356652     0.787424     0.440824    -0.404209    -0.585898    -0.196603     0.574784    -0.246651    -0.913111    -0.144603    -0.336412    -0.682279     0.614236     0.677767     0.633086    -0.186517    -0.817465     0.101955     0.261197     0.239542     0.406192    0.0409938     0.268515    -0.541407    -0.396782            0
   -0.302214      -0.2014    -0.679731    -0.526938    -0.653823     -0.72284    0.0591142    0.0566326     0.991676     0.633104    -0.131899    -0.429643     0.241446    -0.672385    -0.948461     0.313566    -0.311899    -0.848212    -0.275606    0.0244692    -0.056139    -0.106689     -0.22472   -0.0136075   -0.0571597    -0.386905    0.0576022     0.226411     0.276075     0.364502    -0.407897    -0.632934     0.986189       0.7692     0.415382    -0.360396    -0.721928    -0.765593    -0.238116     0.248329    -0.142651     0.820661     0.933327    -0.590622    -0.905671     0.288937    -0.226599     0.298708     0.577403     0.681941    -0.590739     0.557203    -0.599908     0.223036    -0.204487    -0.102209     0.804542     0.111102    -0.932115     -0.35566   -0.0392674     0.816651    -0.335271      0.91072            0
   -0.871657    -0.576869     0.315043     0.331644     0.198238     0.500749    -0.694207     0.854744    -0.717482    -0.126581     -0.34415    -0.499277    -0.121168    0.0151979      0.88323     0.277277     0.857977    -0.327022     0.905158     0.719707    -0.548168    -0.760984    -0.784829    -0.809473    -0.646305   -0.0532056     0.224539    -0.131773   -0.0599088     0.891322    -0.433636     0.141681    -0.503872    -0.826076     0.312389    -0.187354    -0.622285     0.254734     0.922746     0.910847    -0.653808   -0.0483111    -0.222007    -0.102986   -0.0551621     0.407825    -0.287261     0.435239    -0.229436   -0.0593662     0.373466     0.738862    -0.747292     0.370704    -0.479881    -0.191461     0.970521    -0.604707     0.849221    -0.612193    -0.639888     0.555794    -0.384573     0.965787            0
   -0.959954   -0.0947003     0.294899    -0.266434     0.781436     0.182624    -0.957833     0.032278    -0.914122     0.269886     0.710472    -0.173557    -0.512341      0.61662     0.976436    -0.493939     0.454364    -0.748485    -0.959123     -0.20256    -0.948171    0.0891193     0.390719    -0.484807      0.14228     0.471876    -0.129448    -0.934796     0.148197    -0.861936    -0.762053      0.56119      -0.2455     0.213021    -0.402293     0.523872    -0.115438     0.797011      0.78913     0.490787    -0.864154    -0.472541     0.908077    -0.106804     0.440003    -0.307984    -0.149324    -0.692924     0.851126    -0.420001      0.41816       0.7643    -0.464622    -0.936568     0.104432     0.415233   -0.0818619     0.538852     0.590093       0.9361     -0.76005    -0.699526     0.894604     0.679988            0
  -0.0845965    -0.679676    -0.144596      0.87263     0.443594     0.520599    -0.276013    -0.827331    0.0256947     0.877389     0.986346      0.15871     0.462043   -0.0239043    -0.993994    -0.931117     0.758871     0.365667    -0.856276    -0.272935    -0.479925     0.986741      -0.6787      0.92615    -0.592106     0.723812     0.793908      0.23883    -0.229463     0.293437    -0.433942     0.479149    0.0303652    -0.109752    -0.254767    -0.173313    0.0895686     0.788625   -0.0227303     0.433572     0.561944    -0.347437    -0.603088     0.810604    -0.998184    -0.521318    -0.056143    -0.856069    -0.785637   -0.0534873     0.977296    -0.608513    -0.178748    -0.204176     0.147178     0.859461     -0.86811     0.953967     0.394473     0.994224      0.23237     0.330326     0.655688     0.631521            0
   -0.873808    -0.383506     0.968403    -0.659558    -0.828296    -0.129687    -0.315526     0.722535     0.635679     0.689683   -0.0553367    -0.497373   -0.0139855      0.12962    -0.877468     0.634254    -0.527835    -0.263859     0.978499    -0.457591    -0.876283     0.377659    -0.919494   -0.0879602     0.976199    -0.896357    -0.377626     0.919614     -0.66525     0.767225     0.303459     0.673467     0.396874    -0.761151    0.0734753    -0.951582   -0.0480307     0.298084     0.934781    -0.163141    -0.986734    0.0161065    -0.330784     0.481591     0.925951    -0.195349    -0.354151     0.810138    -0.993633    -0.912889     0.264612     0.495047     0.954356    -0.557974     0.819789     -0.71713     0.199819     0.956416    -0.128419     0.537172     0.691064    0.0334681     0.732688     0.374641            0
    -0.52344    -0.132483    -0.639807     0.891216     0.292225     0.288477     0.956222     0.901922     -0.34344    -0.721222     0.718451    -0.879109    -0.399097    -0.610402    -0.757313     0.461968    -0.459205     0.648749    -0.719036    0.0634515     0.924632     0.115757    -0.736476     0.459428     0.355739    -0.880565    -0.803425    -0.648885    -0.628601    -0.322558     0.959204     0.586232     0.701416     0.774417     0.637527    -0.125595     0.805902    -0.718453    -0.872859     0.757337     0.532247     0.120984     0.600596     0.951458    -0.299468    -0.425237    -0.746912    -0.450465     0.481469    -0.728668     0.348391     0.302052     0.178344     -0.45526    -0.631356     -0.20877    -0.213811    0.0192235     0.057956    -0.599019    -0.839365     -0.58877     0.290165    -0.498274            0
    0.941268    -0.970409     0.725836    -0.216417     0.607341    0.0306655     0.216012     0.258614    -0.901112     0.731078    -0.100825    -0.548088     0.606827    -0.735357    -0.340494 -0.000320357    -0.310845     0.565031    -0.703653    -0.437883     -0.90772     0.949811     0.405073     0.866383     0.563815     -0.92614      0.21688     0.972725     0.053518    0.0167003    -0.582305     0.871168    0.0821028      0.64628     0.979618     -0.33875    -0.814251     -0.83212    -0.867516     0.162337    -0.402583     0.339473     0.105227    -0.643782    -0.219132     0.425434     0.116055    -0.167663    -0.114822    -0.251306    -0.307507     0.664495     0.815386    -0.925516    -0.974992    -0.715359   0.00692602    -0.334347    -0.592987    -0.252059     0.353975     0.256318     0.401801    -0.478679            0
    0.804416     0.336496      0.90414    -0.144001    -0.196853     0.306574     0.115077    -0.405867     0.335089    -0.830574      0.67382    0.0440624     0.438133    0.0416959    -0.737471     0.652157    -0.595175     0.342665     0.833496     0.783589     0.844383    -0.415917    -0.274734     0.615777    -0.238816     0.976337    -0.287843     0.285619     0.949182     0.318274    -0.906852    -0.517805    -0.884821    -0.961092     0.832397    -0.252674     0.702999     0.986606   -0.0883154      -1.0034    -0.853773    -0.466674     0.656237    0.0273166     0.455912     0.940976     0.854365   0.00672178    -0.705063    0.0960715     0.751543     0.633943     -0.30081    -0.148307    -0.981964     0.849257     0.959128    -0.390389    -0.773914    -0.162543      -0.8922     0.134022    -0.519049     0.536176            0
     0.70184     -0.71254     0.519181    -0.156051   -0.0211515     0.880543    -0.928229   -0.0975842      -0.1979    -0.395104     0.389862     0.517913     0.621574   0.00120041    -0.575521     0.481951      0.33155    -0.522233    -0.373392    -0.520226    -0.837012    0.0992288    -0.813036    -0.497576    -0.196407    -0.223459    -0.701122    -0.325238    -0.306829    -0.157874     0.671036    -0.362885     0.153085    -0.879941     0.976774     0.199419     0.144775     0.523626      0.18351     0.912515     0.777913      0.99277    -0.278473     0.815652     0.510198     0.841843     0.890183     0.389433     0.832175    -0.201572    -0.790236      0.56721     0.966991    -0.459292    -0.787531     0.630288     0.669715   0.00190622      0.57982      0.39529   -0.0105719     0.284239    -0.413117     0.946962            0
   -0.466669   -0.0679545     0.908464     0.255726   -0.0606485     0.648217    -0.684518     0.818708    -0.702668    -0.442079     0.793649    0.0466554    -0.574442     0.342414     0.852721    0.0758362   -0.0353749    -0.332637     0.210103    0.0019377     0.127461    -0.483205     0.866397     0.542273     0.500709    0.0952515    -0.526223    -0.262732      0.89912    -0.644907     0.695552    -0.924023    -0.954796    -0.288038    -0.528771    -0.237215    -0.372672    -0.176464    -0.567944     0.220037    -0.276867     0.742981     0.688052     0.354209    -0.944161     -0.86971     0.221137    -0.178532    -0.364587     0.785616      0.75306      0.53438    -0.478759     -0.91312     0.351041     0.899479    -0.335478     0.935288    -0.166895    -0.228013     0.388488   -0.0510439     0.217986     -0.10228            0
   0.0795207    -0.830415    -0.332336    -0.820172     0.296036     0.297021    -0.896102     0.221926     0.044543    -0.497538     0.140742     0.483372    -0.494154     0.876476    -0.119897     0.602377     0.361314     -0.18413    0.0826569    -0.401316    -0.649293    -0.373772    -0.653868     0.942123     0.834559     0.850695   -0.0455805     0.257691    -0.455675   0.00958596     0.910436    -0.844919     0.150479   -0.0437897     0.323509     0.916395    -0.131514    -0.478249     -0.29068     0.135418     0.566481    -0.242007     0.531595     0.380788    -0.496318     0.382752     0.215044    -0.824089    -0.393857    -0.195629     0.574088     0.832723    -0.228685    -0.409393    -0.762176    -0.878883    -0.697797     0.643877    0.0266082    -0.718174     0.737923     0.925002     -0.20361    -0.237749            0
   -0.249586     0.560503    -0.124117    -0.364001    -0.977986    -0.328897      0.89871    -0.725701    -0.957632    -0.905652     0.951503     0.656269     0.702044    -0.490929     0.340776     0.781593     0.683682     0.751649    0.0323464     0.908912    -0.943342     0.398412     0.945812     0.201466   -0.0368458   -0.0764798    -0.670048    -0.917736    -0.295658     0.833851    0.0768638    0.0470028     0.806462     0.554631     0.720887      0.77015     0.431887     -0.82186     0.853806    -0.916377    0.0616966     0.428103  -0.00760728    -0.317111      0.45091      0.64103    -0.215387     0.281118     0.235773    -0.502417     -0.32169     -0.12662    -0.542909     0.154951     0.471463     0.970798      -0.4596    -0.612852     0.116026     0.530459    -0.567734    0.0736401    -0.621272    -0.670734            0
    0.520497     0.571865     0.761193    -0.409123      0.04415     0.347918    -0.435735    -0.661055     0.938045    0.0589718    -0.993644    -0.716335    -0.975395   -0.0905943    -0.516761     0.367874  -0.00590498    -0.479642     0.217047    -0.266015     0.807904    -0.444294     0.508537    0.0340534      0.41335     0.206945    -0.985917     0.189442     0.367425    -0.804886     -0.27696    -0.188772    -0.483449    0.0790207     0.265187     0.371197    -0.746795     0.410845     -0.67341   -0.0848206     0.825189   -0.0382589     0.561993   -0.0780821     0.624501     0.430406    -0.851419    -0.165078      0.65921    0.0276226     0.249439     0.204359    -0.628892    -0.312179   -0.0360919    -0.125217   -0.0995354     0.734128     0.601691     0.631522    -0.778886    -0.697133    -0.165604     -0.68492            0
   0.0250707     0.372081    -0.643301      0.31276    -0.190272    -0.167749    -0.475422     0.637464     0.567701    0.0448947    -0.303997    -0.468197     -0.11332     -0.74466     0.431598     0.587714      0.27613    0.0948952    -0.992068    -0.665546     0.753484     -0.87167     0.654736    -0.907872    -0.637779     0.933777    -0.815567     0.977472      0.45735    -0.448975    -0.358158   -0.0218779    -0.406247     0.613922    -0.713497     0.886016     0.731515     0.268512    -0.131047    -0.494544    0.0453428     0.878071     0.752526    -0.933902     -0.45648    -0.158609     0.790671    -0.830534     0.506033    -0.684486     0.229691     0.545694    -0.848194     0.708394     0.888676     -0.49516     -0.53198    -0.859116     0.815616    -0.829909   -0.0071592    -0.163226     0.240703    -0.267973            0
    0.335448     0.832043     -0.87951     0.393269     0.646025     0.132482      0.69144    -0.412026    -0.490061     -0.56925    -0.389374     0.183675     -0.55992    -0.852125    -0.878503     0.365182    -0.692475      1.39743     0.194817    -0.882972     0.985366      -0.5473     0.854353     0.789518    -0.490972    -0.820242    -0.442501     0.978714      1.00822      0.30092    0.0695279     0.454218      0.68009     0.678076    -0.673147     0.706352    -0.567553     0.955875    -0.355766     0.688414     0.962192     0.672585     0.426961      0.60525     0.537874     0.832829     0.700942    -0.468937    -0.677217   -0.0679377    -0.879857     0.467779    -0.780554    -0.953167     0.331899     0.538823     0.439526     0.825361    -0.419027    -0.625941     -0.68622     0.779648  -0.00976614    -0.433988            0
   0.0632129     0.762367    -0.464035     0.876791     0.185767     0.923708    -0.333265     0.181171     0.218877  -0.00719777      0.72855     -0.65684     0.856654   -0.0555434    -0.395782     0.566012     0.992481    0.0191315    -0.399295    -0.010691    -0.392492    -0.208919     0.064438     0.752518     0.461262    -0.840041    -0.752195    -0.950778   -0.0339203    0.0712919    -0.452523    -0.226258    -0.591288    -0.408083    -0.256861    -0.431845    -0.582399    -0.416651    -0.744444     0.469935    -0.301434   -0.0971415     0.413761    0.0746898     0.803313    -0.434432    -0.728214    -0.924209     0.593197     0.339346    -0.255307    0.0903178     0.253445     0.377698     0.124194    -0.690259     0.174982    -0.583329     -0.60897      0.75652     0.605078    -0.480086    -0.974859     0.102379            0
   -0.921439    -0.832203     0.727541    -0.935461    -0.472482    -0.234744    -0.040068     0.698715     -0.54973    -0.809531    -0.401011   -0.0689253      0.50534    -0.238558      0.28518    -0.974674   -0.0829973     0.807447     0.371778     0.944312      0.69273    -0.439169     0.752902    -0.665486     0.625107    -0.554159    -0.517666     0.931012    -0.634195    -0.863864     0.170803     0.384777     0.628792     0.848889     -0.58457     0.615434     0.870575    -0.876086     0.555732    -0.402418    -0.713638    -0.539353   -0.0103008    -0.743393    -0.159352     0.205553     0.590019    -0.400881    -0.437585     -0.55673      0.91145    0.0158986     0.563485    -0.618887    -0.320956     0.111548     0.540742     0.503465    -0.224026     0.875161     0.816973     0.194144     0.646723    -0.864633            0
   -0.124725    -0.864446    -0.460354    -0.115491    -0.720372     0.617437    -0.551663     -0.48593    -0.234858      0.65212     0.457309     0.944909     0.443495     0.445376     0.988453    -0.376211     0.349256       1.1269    -0.108278    0.0762226     -0.76452    0.0731138     0.558592     0.954254     0.317918     0.518966    -0.596812     0.726776    -0.743639   -0.0133254    -0.304028      0.79896     -0.89004     0.723576     0.144177    -0.235578     0.189319    -0.383842    0.0787863    -0.850765   -0.0991225     0.560602    0.0271332     0.463415      0.86926    -0.199682     0.207081       0.3298     0.286674     0.529055      1.01115     0.254783      1.02834     0.655088      1.04892    -0.594975     0.183952    -0.884791    0.0672858    -0.256385     0.771355    -0.350731     0.115227      0.88212            0
     0.86367    0.0877205    -0.137224    -0.542149    -0.508697     0.709946    -0.781147    0.0679648    -0.240769     0.653803    -0.314695    -0.237626     0.766949     0.320005    -0.811895    -0.768105     0.969966     0.210801    -0.793841     -0.55815    -0.509471     0.785504     0.774596     0.096604    -0.966115    -0.635874   -0.0351534    -0.920287     0.379844     0.279011    -0.711767    -0.666264   -0.0789457    -0.533701     -0.18333      0.93771     0.824089    -0.793695    0.0151485    0.0127941      0.84723    -0.409299    -0.126622    -0.402904     0.520281     0.794784     0.641264    -0.424318     0.375768    -0.594316    -0.759858     0.459493    -0.181575     0.381903     0.977068    -0.366595     0.994049    -0.464059     -0.23139    -0.603919     0.768115     0.964896     0.584728    -0.783953            0
     0.86162    -0.641545     0.354302    0.0971885     0.683314     0.873712     0.982679     0.592502     -0.72472     0.051156     0.573683    -0.320682     0.396888     0.243383    -0.569016     0.727045     0.785633    -0.293754     -0.64603    -0.183553      0.49341     0.627737     0.944077     0.058751    -0.692869      0.08968    -0.362474     0.665972    -0.465282      0.83156    -0.963863    -0.197037    -0.852376      0.72607   -0.0483333     0.822171     0.316384     0.749321    -0.268422     0.779338     0.154169   -0.0714286     0.423771   -0.0215096    0.0878069    0.0491818   -0.0340294    -0.537836    -0.242498    0.0479679     0.144424      0.32564    -0.664738    -0.951661    -0.590519    -0.667123     0.877075    0.0768618     0.832067     0.223353     0.550006    -0.466808     0.125298     0.159145            0
    0.441905     0.855776     0.887357     0.328063     0.532773   -0.0876971    -0.646295     -0.85543     0.154902     0.758305      0.31508    -0.786071      0.84085    -0.195329     0.257227    -0.915303    -0.163421    -0.716139    0.0903567     0.780675     0.983852    -0.580061     0.509697    -0.947837     0.500984     0.139076    -0.197993    0.0960791    -0.472794    -0.912844     0.505324    -0.319612    -0.713293     0.188608    -0.164108     0.841793     0.407881     0.432292     0.173508     -1.05413    0.0910153     0.911047     0.232243    -0.716892     0.196782    -0.289186    -0.642066     0.141434    -0.553188    -0.296863     0.747002    -0.641311     0.712216    -0.162438     0.408556      0.43419     0.229123    0.0488701     0.565327     0.402082   -0.0529103     0.395608  -0.00621982     0.868785            0
   -0.431413    -0.780951     0.304533     0.217287     0.430129      -0.5025   0.00520782    -0.282437     -0.29403    -0.410478    -0.949633     0.265936     0.826761    -0.902435     0.907167    -0.091906     0.157374    -0.777997   -0.0245804    -0.831904    -0.696235     0.610357    -0.732473    -0.416662   -0.0242283    -0.587999     -0.57066    -0.561486      0.87441     0.716018     0.868794    -0.235863    -0.566023  -0.00521476     0.720645    0.0356124     0.149832     0.831082     0.327927     0.265411     0.702338    -0.910721       0.0992    -0.518156     -0.54966    -0.851202     0.120628     0.122565    0.0815058     0.590367    -0.588007     -0.90503      0.59614    -0.844714    -0.530678    -0.221246     0.858875   -0.0607984     0.350912     0.259313     -0.75748    -0.677105      0.85856     0.181255            0
    0.477069    -0.224008   -0.0204895    -0.790478    -0.335524     -0.86008     0.551795     0.540005    -0.902883     0.886222    -0.742216    -0.596823     0.537755    -0.733641     0.652754     -1.02292     0.573936   -0.0713445     0.980079     0.659045     0.375023     0.373825     -0.33778      0.62512     0.324004    -0.841849     0.243538      0.25539     0.794905      0.11213     0.405249     0.766241   -0.0810505       0.7002    -0.997408     0.168533    -0.989692    -0.707874    -0.341658      0.11094     0.996193     0.102468    -0.541067     0.638156     -0.74697     0.242665    -0.130442   0.00729683     0.202629    -0.307877    -0.962769    0.0714139    -0.791357    -0.532011     0.493565     0.962406    -0.321676     -0.35556     0.452443      0.45309     0.752662     -0.80965    -0.870995    -0.206896            0
    0.279958     0.192383     0.659138     0.960115    0.0170599     0.484195    0.0444354     0.278626     0.387174     0.911625    -0.574526     0.768235    -0.220365     0.465691     0.472996    -0.156315     0.740854    -0.401686    -0.624971    -0.369841    -0.300551     0.976646    -0.197084    -0.716177    -0.545772     0.142845    -0.349533    -0.323804     0.103646     0.256787    -0.211553   -0.0805061     0.784927    0.0113895    -0.895481     -0.91153    -0.757487     0.943745   -0.0623353     -0.59796     0.141268   0.00876643      1.40116   -0.0806832    -0.574563    -0.404126     0.800332    -0.548023     0.570823    0.0375233     -0.45834     0.226711    -0.830341     0.497948    -0.374959     0.197047     0.811898    -0.888989    -0.665123     0.936305    -0.779996     0.252562     0.910389    -0.441049            0
   -0.291903     0.281611     0.832501     0.810567     0.813151     -0.56613    -0.141055    -0.413967    -0.306219    -0.148772    -0.331182    -0.327671     -0.32676    -0.632866     0.921767     0.489067    -0.692617      -0.1202    -0.103323    -0.808676    -0.353783    -0.954362     0.409254    -0.992009     0.416513     0.608513    -0.328386    -0.588884    -0.573663    -0.454797     0.820436    -0.404469    -0.443894     0.340835    -0.743257     0.423739    -0.112462    0.0353492    -0.964566     0.955163     0.402731     0.868641     0.767676   -0.0192567    0.0189483     0.154649     0.671194     0.230639     0.603147    0.0410988    -0.462471     0.308861     0.410427     0.580088    -0.822785     0.514347    -0.897903    -0.519119     -0.56033    -0.985453    -0.474061     -0.37832   -0.0720254    -0.451547            0
    0.375723     0.405471     0.159931      0.55476     0.269056    -0.404175     0.373504    -0.148234    -0.829731     0.281826    -0.136632    -0.955764     -0.45579    -0.654692     0.603222    0.0928778    -0.517696     0.855505    -0.464581     0.858965     0.996525     0.719919    -0.180228    -0.429495      1.13827     0.979158     0.155944     0.506727    0.0550165     0.987535      0.13566    -0.502808    -0.187763     0.801084    -0.694586    -0.560499     0.742491    -0.446573    -0.128043     0.263311     0.305711    -0.167181    -0.647172     0.768871     0.849354     0.611079    -0.237694    -0.251756     0.241049     0.649993     0.731428    -0.838643    -0.670539    -0.376187    -0.227237     0.763816    -0.719538     0.792034    -0.592443    -0.680766      0.66131    -0.642097    -0.838404    -0.947494            0
   -0.668052    0.0788268    -0.911268     0.659114    -0.547039    -0.525357     0.194113     0.115615     0.977631    0.0371986    0.0149869    0.0711306    -0.109846     0.691227    -0.683328     0.887059     0.970443    -0.687897     0.985505     0.550132    -0.310113    -0.827559    -0.243039    -0.684233    -0.770112   -0.0508463   0.00510519    -0.802821    -0.391531     0.653725    -0.210796    -0.753691    -0.635036     0.282696     0.667125    -0.906038     -0.57617    -0.157741    -0.237991     0.432673    -0.487325   -0.0661652     0.486183    -0.251603    -0.365201     0.553633    -0.531416    -0.799009     0.738966     0.869602   -0.0776179     0.960781    -0.114898    -0.685696    -0.507822     0.107198    -0.867043   -0.0634599     0.886585    -0.947495      0.15331    -0.728163    -0.508961     0.416868            0
   -0.119791     -0.18677     0.838963    -0.243369    -0.881015    -0.561394    -0.718497     0.346612    -0.817814     0.480045     0.898048     -0.11321     0.987415    -0.618759     0.159535    -0.869684   -0.0106197    -0.770879  -0.00223559    -0.329999    -0.111836    -0.444498   -0.0269694    -0.273599    -0.826481     0.254049     0.772485     0.726534      0.39352     -0.69771     0.625135     0.307108    -0.823038      0.84553     0.622595     0.586664    -0.398539     0.233353    -0.420431   -0.0126848     0.932786     0.963315    -0.396807     0.231726    0.0663111    -0.779072    -0.217863     0.100671   -0.0125846     0.162996      0.12678    -0.516379   -0.0331727    -0.695741    -0.518233    -0.234654    0.0718017     -0.59163     0.830868     0.384014     0.572204    -0.242921    -0.172606     0.557943            0
     0.76015     0.644852     0.398688     0.466636     0.775495     0.959075     0.134319    -0.668156     0.883603     0.392593    -0.194921    -0.522349     0.442822    -0.797212    -0.462723    -0.730992    -0.990227     -0.56854   -0.0610884     0.505497    -0.210041     0.391009   -0.0212727    -0.778284    -0.432521     0.664573    -0.935757    -0.225657    -0.735187    -0.880712    -0.911991    -0.535563     -0.73619    -0.597285     0.206676     0.144087    -0.367796     0.442886    0.0598325     0.288758     0.163011    -0.776708   -0.0681522  0.000352798    -0.837881    -0.518359   -0.0945606    -0.524927    -0.511687     0.393591     0.751789     0.244614    -0.833438    -0.948475     0.364294     0.129377     0.232542    -0.421837     0.711995     0.859462     0.573907     0.217351        0.393     0.777246            0
    0.658402     0.155357    -0.618997    -0.260109     0.848194   0.00369243    -0.609116    -0.528696    -0.824138     0.750649    -0.218076    -0.116755    -0.507232    -0.591083    -0.280351    -0.518094    -0.556681    -0.974313     0.276903    -0.715905     0.157522    -0.821201     0.560435     0.493484    -0.161895     0.320916    -0.920852     0.171645     0.410675    -0.538562      0.73501     0.754734    -0.501759     0.698795     0.287681  -0.00353829     0.879702     0.179432     0.957868     0.171296     0.376883     -0.35408     0.609957     0.585079     0.499904   -0.0275684    -0.839723     0.361165     0.824945     0.842741     0.330709     0.290221    -0.973629   -0.0430356     0.541442     0.943795    -0.494557    -0.413146    -0.131067     0.328493     0.660455     0.111327      0.33277     0.252286            0
   -0.339326     0.843102      0.64575     0.172982     0.998824   0.00969064    -0.460609     0.476707    -0.648871     0.981418     0.733377     0.106767    -0.147442     0.974358     0.770414   -0.0336556     -0.75033     0.381801    -0.666691    -0.235886     0.292118    -0.558874     0.324934     0.153725     0.342792    -0.124862    -0.439142    -0.238866    -0.775517    -0.934264    -0.691607    -0.172543   -0.0531371     0.873653     0.945033     0.316453    -0.262518    -0.455126    -0.735107     -0.97702      0.72021     0.404139     0.198985     0.645827     0.869713     0.795713     0.535487     0.187561     0.842812     0.826584       0.4445    -0.902143    -0.355406     0.937345      0.29525   -0.0521193    -0.826243     0.669567      0.07041    -0.209794    -0.386802    -0.974405     0.285987     -0.83884            0
   -0.542064    -0.556548     0.718958     0.939698    -0.878328    -0.763765     -0.80611      0.38888     0.875278    0.0256965      0.67318     0.048008    -0.315732    -0.469598    -0.392701     0.582574    -0.302126    -0.416753     0.663305    -0.470034      0.73382     -0.71568     0.754007     0.208109      0.51032    -0.722332     0.121846    -0.999245     0.540888     0.483791    -0.319888    -0.168496    -0.750002    -0.828085    -0.377942     0.783691   -0.0897246     0.677294     0.821717    -0.462912     -0.97964    -0.956047    -0.134825     0.409731    -0.743285     0.770579      0.67884     0.773782    -0.934283    0.0755326    -0.838949    -0.198183    -0.433346     0.274561    -0.840193    -0.972832    0.0370844     0.687745      0.77988    -0.496197    -0.465348    0.0340022     -0.94227     0.687967            0
    0.786745     0.578487     0.696046    -0.928324    0.0464323    -0.495559    -0.301539    -0.673479     -0.54162    -0.375932     0.437774     0.383968     0.371601     0.424114    -0.364556     0.762004    -0.698704    -0.301335     0.182062    -0.996198     0.609354    -0.582186     0.775606     0.684011       0.1918     -0.73229     0.303687    -0.960128    -0.649234    -0.647261    -0.698626    -0.103585  -0.00563169     0.872719     -0.39993     0.809108    -0.742583    -0.565833     0.880614    0.0821427     0.723075     0.597609    -0.612051    -0.517907    -0.555123    -0.619744    -0.126985    -0.203596    -0.393592    -0.216625    -0.295825    0.0290827    -0.720921    -0.672332    -0.938439    -0.247666    -0.524036    -0.040648    -0.281846       0.7163      -0.9794    -0.332879     0.948198     0.218073            0
    -0.29928    -0.250651   -0.0593499     0.906689      0.78026    -0.807685    -0.415635    -0.491026    -0.562994     0.251304     0.443849     0.933211     0.340217     0.590978     0.748317     0.488802     0.704034     0.633316    -0.625814     0.561554     0.343948     0.530245    -0.282587     0.668919    -0.502662    -0.652986      0.43141    -0.173662      0.37268    -0.796244    -0.453659    -0.612417     0.701363    0.0866736     -0.45726    -0.159675     0.622044    -0.658115    -0.945977     0.507537     0.856056     0.931361     0.107062    -0.460977     0.309649    -0.512272    -0.613837     0.494637     0.717506    -0.593417     -0.13734     0.862157     0.179946    -0.999223    -0.600329    -0.636886    0.0918949     0.167957    -0.339497    -0.273695    -0.146809    -0.673931     0.180592     0.841148            0
     0.37334    -0.214741    -0.425637     0.812516     0.565266     0.756834   -0.0781409     0.561146    -0.099027   -0.0969143     0.659527    -0.793282    -0.853689     0.506498    -0.405765     0.670828    -0.543255     0.948914     0.807029     0.257031    -0.746105    -0.728939    -0.921172     0.134258     0.962368    -0.998519   -0.0842461     0.239585    -0.688574    -0.222827      0.24617    -0.690943     0.280363    0.0621632     0.367291    -0.389622     0.999844     0.465919    -0.201014     0.932195     0.582305    -0.307924     0.262087     0.220335    -0.741729     -0.75074    -0.377303     0.917713    -0.696643    -0.977955    -0.861654     0.193304      0.38774    -0.929615     0.306489     0.886629     0.168974     0.602012     0.174354    -0.501973     0.768656    -0.635672     0.713418     0.319488            0
    0.912937    -0.761948     0.672242    -0.587835     0.218137     0.374755     0.386482    -0.951416     -0.90594    -0.686248    -0.617563     0.886595    -0.642385    -0.446266    -0.275469     0.412274    -0.226539     0.434806     0.160561     -0.45379     0.733071     0.795473     0.863154     -0.40395     0.256308    -0.628646     0.926061     0.959486    -0.314484    -0.880151     0.604833    -0.432384    -0.608757    -0.888412     0.673545     0.857526     0.209387     0.732251     0.815395      0.86969     0.736342    -0.387919    0.0571649     0.963685    -0.629348     0.184907     0.518864    -0.393458    -0.375738    -0.129514     0.968787     -0.47587    -0.766731    -0.230306     0.881206    0.0352035     0.675782   -0.0977201     0.589735     0.253472     0.716262      0.70059     0.680893    -0.407286            0
     0.17728     0.659775     0.316426     0.795584    0.0724853     0.480792     -0.45678    -0.589108    0.0935666     0.530083       0.1623    -0.945899     0.941121     0.980577     0.988951   -0.0521284     -0.75517     0.282065    -0.344851    -0.374994     0.268579    -0.353997   0.00734575     0.128347     0.919308    -0.533547     0.627985     0.177452     0.744079    -0.118638    -0.494455      0.97171     0.402779     -0.13878    -0.819733      0.71473     0.427946    -0.376567    -0.818836     0.222779     0.388303    0.0525809    -0.292342    -0.509518    -0.987475    0.0624914    -0.360749    -0.955828     0.179063    -0.322086    -0.788949     0.164209    -0.641793    -0.454482    -0.231626     0.154344     0.878084    -0.802238     0.718459     0.127287    0.0225709    -0.262701    -0.529195    -0.657126            0
    0.314608    -0.189471    -0.684219    -0.426986     0.172607      -0.2125    -0.861215     -0.18024 -0.000139229    -0.365836    -0.441298     -0.34137     0.753172     0.771159     0.253741    -0.339025     0.145931     0.516773    -0.896623     0.819148    -0.653826    -0.779129     0.525275  0.000641599     0.526183    -0.924527    -0.867366      0.21231     0.364944     0.797774     0.663865    -0.821814    -0.637534    -0.290692     0.345875     0.271628    -0.814407     0.633807   -0.0685295    0.0924402    -0.820278    -0.964011    -0.632686     0.576553     0.064414     0.674695     0.738752    -0.249951     0.154309    -0.229261     -0.16916    -0.142201     0.203257    -0.855131     0.331993     -0.82873    -0.824169    -0.719178     0.581366     0.245968     0.130131     0.620646     0.115281     0.840809            0
    0.717353     0.510333     0.584172     0.213457    -0.978717    -0.318671    -0.498942    -0.357284     0.429148    -0.516823    -0.943743   -0.0693425     0.795834     0.595499   -0.0129401    0.0547452      0.17829    -0.199698  -0.00594283    -0.670201     0.577454    -0.620443    -0.318268    -0.783587     0.936542     -0.64889    -0.361782     0.245105    -0.365302     0.473778     0.697982     0.050012    -0.493578    -0.848215     0.500539    -0.395148   -0.0876141     0.718875     -0.27292     0.890571     0.882568     0.147042    -0.286598  -0.00899868     0.920552     0.130119     0.373229     0.613263    -0.114644     0.966557      0.72033    -0.841927   -0.0674359     0.621386     0.899528    -0.115539     0.634657     0.528944     0.815821    -0.909071     0.828638    -0.165388    -0.838105    -0.870455            0
    -0.12088      0.87059    -0.164109    -0.509868    -0.948666     0.361335    -0.385726     0.294619     0.895667    -0.867978    -0.447838     0.572015     0.562817   -0.0181298    -0.586571    -0.579863     0.576377     0.955374     0.281757      0.10478     0.431567     0.745232     0.277938     0.660901    -0.365407     0.246967     0.926956     0.852213     -0.56275     0.761033    -0.823419    -0.388718    -0.444136   -0.0162561     -0.86618   -0.0858515    -0.427279     -0.85122     0.364673     0.159835     0.166216    0.0453511     0.429184    -0.693867     0.681759   -0.0914296    -0.454758     0.433605  -0.00167361     0.476342    -0.579186    -0.268581     -0.67479    0.0862254   -0.0192543    -0.215367     0.546023     0.226687     0.298279    -0.477424    -0.987678    -0.978462    0.0592372    -0.704934            0
     0.84794     0.713883    -0.774112     0.617176    -0.888042    -0.552303    -0.546753    -0.393989     0.297193     0.172657    -0.647649     0.705286    -0.821145     0.113673     0.106462     0.726857    -0.889496    -0.191513      0.31348    -0.178914     0.475557    -0.262333     0.470019    -0.403377   -0.0270745     0.173269    -0.386771     0.949577     0.329703    -0.841628      0.35948    -0.743317     -0.59233     0.424024     0.792618    -0.965587    -0.187079    -0.535821     0.363527    -0.662384   -0.0971457      0.77897    -0.944634   -0.0692378     0.338124     0.810271     0.187146     0.571517     0.789351    -0.443645      -0.4161    -0.607822     0.724479    -0.768251    -0.317756     -0.92925    -0.162461    -0.742168    -0.585528    -0.973048    -0.481494    -0.430398    -0.659071    -0.242941            0
   -0.203127     0.706215    -0.745233     0.211159     0.317319      1.06221    -0.397762     0.783992    -0.483591   -0.0494142        0.197     -0.58597    -0.698171      0.47203     0.867163    -0.352655    -0.460391      1.61559    -0.923286   -0.0715167     0.933284    0.0057842      0.10533    -0.764176     0.758067     -0.80149     0.607563    -0.497204     0.697581    -0.560618     0.608709     0.202518     0.656901     0.110823    -0.199173    -0.478752     0.780872    -0.736289     0.437495    0.0502784      0.44905     0.905034    -0.755004    -0.628211    -0.408102    -0.482018   -0.0718233     0.789174     0.491924    -0.229072     0.294418     0.990796      0.70949    -0.788007     -0.86323   0.00557777      0.93414     0.214664    -0.139444    -0.596653     0.566691    -0.240386   -0.0279273   -0.0820849            0
    0.629534     0.498465     0.716029    0.0118989    -0.926652     -0.72796     -0.48978      0.46663      1.35987     -0.84247    -0.496335     0.228284     0.265168     0.490972     0.754205    -0.804866     0.260069      1.73738    -0.685896    0.0136918     0.509999     0.143644     0.247518   -0.0832693     0.630125    -0.830479    -0.722048     0.935145      1.25093     0.542377       0.2539     0.653886    -0.637675    -0.459202     0.849304    -0.315702    -0.995393    -0.648893     0.220668     0.264955    -0.772087    -0.526546    -0.578423   -0.0109837     0.244245    -0.421441     0.738951    -0.285278    -0.759459     0.973926     0.106253     0.604799    -0.195851    -0.758823    -0.547792    -0.244569    -0.915716     0.648941    -0.411223    -0.878561     -0.54005    0.0951784       0.4651    -0.374844            0
    0.368437     0.350647     0.992602    -0.791256     0.156108       1.2269    0.0137659    -0.141595     0.908035    -0.839745    -0.641293     0.988951    -0.796214    -0.976933     0.589703     0.104493     0.104603     0.697007    -0.469473     0.555071     0.312631     0.293372    0.0348949     0.667356     -0.53532    -0.617708    -0.356321     0.142022     0.872121    -0.661169    -0.916276    0.0643401   -0.0757792    -0.495575    0.0551609      0.40561    0.0661266     0.892847     0.708728     0.261505    -0.271956    -0.259289     0.617359     0.851835   -0.0311435     0.273122      0.52949    -0.593561      0.52919     0.583978     0.847596     0.596537    -0.863821   -0.0804308     0.648939   -0.0544678      0.73601    -0.961098    -0.594107     0.739522    -0.099852    -0.127531     0.197863    0.0584719            0
    0.821944     0.122889    -0.355951    -0.435991    -0.872953     0.253866     0.122005     0.442111     0.130685     -1.05985     0.893003    -0.054167     0.189065     0.727316     0.298765    -0.749483     0.815741    0.0269286    -0.915354     0.262937     0.749308     0.134114    -0.239054    -0.622924    -0.717927    -0.864081     0.799913    -0.504387     0.214097  -0.00850396    -0.747881    -0.823775    -0.749347     -0.27439    0.0915839    -0.592736     0.512388     0.528616    -0.652497     0.562206    -0.505608     0.783105     0.997522    -0.570673    0.0804709     0.387191    -0.225676      0.95864      0.10078    0.0864419    -0.401042      0.53649     0.911956     0.920387    -0.911551     0.510418    -0.599784      0.41325     0.145207    -0.278723   -0.0582378     0.596387    -0.771916     0.626372            0
  -0.0350187     0.384615     0.900997    -0.557611     0.719373     0.608184    -0.803758     -0.81852     0.521246    -0.421856     0.114291    -0.588041     0.705767     0.638737     0.875708     0.587171      0.56759     0.695721     0.531001     0.130719     0.540415     0.596344     0.170534    -0.240698    -0.714379     -0.64028    -0.164753     0.951197    0.0844984    -0.154908    -0.674903     0.103984    -0.957585    -0.780993    -0.809244     -0.60935    -0.562946    -0.700851     0.931191   -0.0396337    -0.809895    -0.860142     0.848538    -0.435364    -0.429252    -0.584886     0.390644     0.245786    -0.280936   -0.0940119     0.351192    0.0725781     0.128245    -0.711991      1.01347    -0.705746     0.523214     0.532458      0.49377    -0.437566     0.166157    -0.125174    -0.547458     0.168896            0
    -0.56835     0.138941    -0.403296    -0.927628    -0.658125      1.15061     0.673383    -0.819778     0.153611     0.186844    -0.912743     -0.66789    -0.938625   -0.0325789    -0.806075    -0.334693    0.0970748   0.00993211     0.230775    -0.463802     0.954389    -0.915547      1.13631     0.455243      1.26162    -0.441034    -0.116933     0.254904     0.421007     0.412546    -0.367878     0.831534     0.332933    0.0962317     0.821751     0.973765     0.483728    -0.531776      1.01538    -0.325051      0.42661     0.628037    0.0311198    -0.111928    -0.531473     0.838003     0.540539    -0.469893     0.242653   -0.0766763    -0.289043    -0.313145     0.506849    -0.702733     0.115453     0.255273   -0.0883658    -0.522093    -0.087518     0.430829    -0.353525     0.392383     0.242419    -0.861157            0
    0.900505     0.209639    -0.593251    -0.386299    -0.345435      1.01912    -0.926139      0.24169    -0.268052    -0.810672    -0.508009     0.876907    -0.302319    -0.507873    -0.416053    -0.752996    -0.267268      0.42687     0.677406     0.124375     0.434158     0.694945     -0.45006    -0.359804      1.13414    -0.375757    -0.721183    -0.420407   -0.0623625     0.133886     0.423022     0.562156     0.879446    -0.427423     0.531729    -0.977302     0.382963     0.641791     0.922715     -1.01583    -0.219263    -0.821212    -0.012779    -0.336107     0.744231    -0.394018     0.870358    0.0844125     0.775552     0.529712    -0.437934    -0.447611     0.590794      -0.6985     0.094634    -0.378035     0.941539   -0.0832157     0.848673    -0.629249    -0.584701    -0.209469     0.914465     0.733805            0
    0.840257     0.348637    -0.588132     0.519149     0.999001     0.225621    -0.361279    -0.274437    0.0636041    -0.685358      -0.4284    -0.643133     0.154421    0.0959112     0.864161    -0.859363   -0.0831649   -0.0429068    -0.378559      -1.0203     0.755296    -0.330542    -0.281437    -0.418752     0.825916      1.04633     0.278482     0.967598     0.276157     0.845079    0.0203123   -0.0930281    -0.847625     0.939021     0.358843     0.155072     0.626373    -0.111533   -0.0154512   -0.0667602    0.0907949     0.594115   -0.0899668    -0.956338    -0.418177     0.249735    -0.985238     0.423707      1.02645    -0.564957     0.332058    -0.672639     0.148872     0.943097      1.02838    -0.300721    -0.292786     0.641411      1.23028     0.130119    -0.488586     0.524095     0.641701    0.0127063            0
   -0.699867    -0.940866     0.386528    -0.144842    -0.154914     0.632931     0.887731     0.265674     0.122571   -0.0993896    -0.227438     0.094483     0.847148    -0.682516    -0.617971    -0.177515    0.0670368    -0.961355      0.42571    -0.246272    -0.618809     0.869958     0.813188    -0.589631      1.29493     0.203796     0.930711     0.597245    -0.198479    -0.270494    -0.081496     -0.82526    -0.746013     0.557544    -0.342243     0.911475     0.307817    -0.357145   -0.0289491     0.729513     0.273514      -1.0742      1.35464     0.525466      1.33434     0.640876   -0.0751553     0.611959    -0.482205     0.329007    -0.123766    -0.853652    -0.863871      0.67917    -0.214321     0.888678   -0.0948811   0.00121003   -0.0521177     0.782834    -0.902406     0.357279    -0.113542    -0.689322            0
    0.772954     0.515667      0.67993      0.99981    -0.638304      0.50947     -0.94816    -0.165774    -0.414606     0.277051    -0.934326    -0.443775    -0.883334     0.740308    0.0149572     0.893859    -0.461941    -0.861338     0.810393     -1.08927    -0.147309     0.322682    -0.702289     0.613799    -0.533432      1.00443  -0.00328168    -0.743449     0.471838  -0.00860964     0.456505    -0.630493     -0.97293    -0.707048    -0.494267     0.844869    -0.300653     0.361786    -0.406128    -0.891161     0.934687    -0.262877     0.208197     0.685496     0.129818     0.610509     -0.20329    0.0541902    -0.659345     -0.42232     0.562195     0.878028     0.629951    -0.650161     0.021084    -0.045158     0.819129      0.95881    0.0124387      0.58948     0.878214     0.323723    0.0829331    -0.141479            0
    0.306228     0.240507    -0.788387   0.00902679     0.555591     0.694659   -0.0119253    -0.123285    -0.818589     -0.92163     0.886681    -0.429204    0.0299559     0.767443     0.121441    -0.791453      1.02094     0.327555     0.490999    -0.869219     0.678812    0.0893963      1.13257    -0.399337     0.282729    0.0910012    -0.882955    -0.388639     0.802068     0.905781    -0.477044     0.590614    -0.560918     0.123675    -0.776123  -0.00313474    0.0342541    -0.687285    -0.871823     0.200306    -0.818016     0.262251   -0.0261568    -0.647518     0.540095     0.889452    -0.627441     0.689743    -0.790578      0.13818   -0.0514936     -0.31395    -0.363435    -0.219341     0.123207    -0.866532      0.94069    -0.367942     0.496703    -0.472691     0.405977   -0.0802975    -0.436469    -0.133317            0
   -0.133686    -0.586266    -0.363618    -0.935155    -0.724785     0.914789    -0.111652     0.986404     0.831558     0.482718    -0.177072    -0.639581     0.724518    -0.945443    -0.710782     0.784488    -0.207123    -0.249505     -0.68719     0.349633     -0.32033     0.480315      1.60364   -0.0187377 -8.48267e-05     0.224289    -0.643485     0.487787    -0.325631    -0.627078    -0.214462   -0.0616356    -0.312036    -0.449917    -0.596814   -0.0529129    -0.542351    -0.527879    -0.647002      0.11823   -0.0237382    -0.902655     0.627662    -0.981142    -0.802123     0.746338     -0.95476    -0.833123     0.353483   -0.0806256      0.20817    -0.758682     0.704294     0.834456     0.103715    -0.332569     -0.22882      0.88517    -0.762803    0.0394658    -0.702528     0.680174    -0.396452     0.489083            0
    0.239193    -0.576566    -0.366694    -0.851728   0.00235537     0.589489     0.600089    -0.625363    -0.314471     0.144435    -0.676542   -0.0405976     0.754448     0.503576    -0.332326     0.966716    -0.299965     0.378012     0.790473     0.794194     -0.76149    -0.303493       0.5603     0.235643     0.247627     0.713863    -0.817597     0.166299     0.266007    -0.946675     -0.13903     -0.86104   -0.0539805     0.992885    -0.475212     0.013402    -0.290345     0.653908     0.313971     0.268142     0.931161    -0.733766    -0.340389     0.325199    -0.260271    -0.150192     0.665986    -0.986441     0.401215     0.269803     0.595249   -0.0505576     0.928921    -0.182172    -0.508652   -0.0827526    -0.497394    -0.428325    -0.528684    0.0419019     0.604594     0.514073    0.0624378     0.651079            0
   -0.437881     -0.56987     0.862028   -0.0904066    -0.451166     0.178854    -0.974714     -0.84467     0.568774     -1.00963    -0.687846    -0.660969     0.809006    -0.176518    -0.405625    0.0747331     0.792506     0.901395     0.866028    -0.238423    -0.608258    0.0660423     -0.21349    -0.115515   -0.0421437     -0.89028    -0.345562     0.203916   -0.0944368     0.155442     0.311221    -0.480262    -0.775991    -0.864935    -0.666098    0.0853356     0.276767     -0.74354     0.106413     0.615948     0.323288     -0.35912      1.06965     0.274888     0.790496     -0.51355     -0.82734    -0.858365     0.731278    -0.824296     0.490053      0.91276     -0.10191    -0.721393     0.744188     0.330514     0.754665    -0.263899     0.822909    -0.536386     0.612625    -0.827735    -0.586758     0.425636            0
    0.572004      0.55482    -0.531117     0.854488    -0.923543    -0.651341     0.736392    -0.427562    -0.477678    -0.633666     0.491746    0.0327487    -0.686636    -0.344233    -0.789046     0.256892    -0.471023   -0.0391493     0.209487     0.541004     0.329714     0.525952     0.226596   -0.0107468     0.639718    -0.187858    -0.084946     0.867585       0.1007   -0.0865209    -0.394026      0.54994      0.24407     0.890918    -0.336071    -0.629174     0.345187      0.50747    -0.678371    0.0786336    -0.621008    -0.787466    -0.694007    0.0011441     0.129253   -0.0983586     0.716366     0.397434    -0.044872     0.960473     0.745683      0.55018     0.188541     0.414544     0.280774    -0.818222    -0.124958    -0.633948    -0.342389    0.0540129    -0.188792    -0.698146      0.52856    -0.962656            0
   -0.385084     0.688562     0.793237     0.702408    -0.728589    -0.814686   -0.0374395     0.226403     -0.14722     -0.53642     0.186827   0.00363883     -0.86425    -0.653779    -0.729104    0.0570115    -0.436654    -0.196978    -0.674108     0.653159    -0.764708    -0.583575     0.619324     0.806148   -0.0324384      0.69171     0.279618    -0.326974    -0.678977    -0.963869      0.99663    -0.347658     0.758256     0.793969     -0.16972     0.452903    -0.547854    -0.792665    -0.880721    -0.464913     0.236872     0.123849    -0.162104    0.0940704    -0.440392    -0.539062    -0.571709    -0.238218    -0.357898   -0.0802044     0.326677     0.110799    -0.734327      0.44164     0.264111    -0.318936    -0.215324    -0.636291    -0.141827     0.361135     0.256888     0.871976     0.224003     0.703322            0
   -0.105933     0.470623     0.950761    -0.431292   0.00179551     0.653497     0.210064     0.270945     0.545934    0.0485355     0.327141     0.410162    -0.355961    0.0520622   -0.0889532   -0.0382076      0.45908    -0.914488     0.851533    -0.688291    0.0816123     0.238484      0.46399     0.200252     0.184147     0.058874      0.65779     0.401095     0.514032    -0.193272    -0.899576    -0.226175    -0.411027      0.41776    -0.998973     0.179298     0.700597    0.0987193     0.811104    0.0516807     0.835963     0.574715     0.341003    -0.976716    -0.575407    -0.959916    -0.358756    -0.657374     0.470168    -0.954694    -0.587565     0.873541     0.783228    -0.407089    -0.763634    -0.562288     0.888377     0.672642     0.700635    -0.483881    -0.239741    -0.555898   -0.0957337    -0.157568            0
   -0.547787    -0.631949    -0.692154    -0.388787    -0.804558    -0.212735    -0.982627     0.919219    -0.295492     0.846664     0.389794     0.919539    -0.699221     0.128472     0.371663     0.387208     0.509917     0.189678    -0.792748    -0.788995    -0.782122    -0.918546    -0.800373     0.715655     0.813236     -0.93381    -0.312461     0.594119     -0.50578     0.215692    -0.768891    -0.142952     0.421033     0.736447    -0.713476      0.95749     0.946647    -0.259177   -0.0988019    -0.934051    -0.688222    -0.824151    -0.116812     -0.76713     -0.80444      0.12257    -0.501497    -0.501895     0.942543     0.123469    -0.127537    -0.966199    -0.844631     0.718804     0.762541    -0.052876     0.946865    -0.225578    -0.511521    -0.561974    -0.616629    0.0589331    -0.644045     0.595286            0
   -0.624934     0.333414     0.191925     0.172101    -0.953094    -0.855611    -0.898072     0.559326    -0.263617     0.856172     0.991906      0.48129     0.578572    -0.450991    -0.155155     0.326019    -0.426881     0.234481     0.264803     0.158656    0.0252504     0.807434    -0.401949    -0.972135     0.535041     0.356284     0.343862     0.447369    -0.414163    -0.844656    -0.915361      0.11678    -0.977934    -0.803317    -0.963044     -0.40301    0.0843497     0.650221     0.179112      0.82384    -0.600116     0.347141     0.769744    -0.905577    -0.278285   -0.0574204      0.33373     0.236856     0.130415    -0.686613    0.0784664    -0.644587    -0.567764     0.493165    -0.371594     0.810441    -0.982781   -0.0611676    -0.429832     0.220598    -0.169181     0.089327    -0.381393     0.480569            0
   -0.447531    -0.373073    -0.668236     0.317667     -0.15001    -0.342811     0.606432     0.743541     0.721796    -0.200815    -0.890935    -0.706593     0.136807     0.460979      0.69876     0.446139     0.902399    -0.888802     0.128437    -0.404197    -0.760865     0.417282    0.0253048    -0.306264    -0.972842     -0.62021     0.736937     -0.42726   -0.0752928     0.267343     0.835434    -0.474099    0.0872137     0.116556     0.288708    -0.824241       0.5803    -0.721848     0.768973    -0.777089     0.212846    -0.779368   -0.0490406     0.608364     0.924153    0.0125153    -0.198479     0.703791     0.303361     0.888047     0.743144     0.163762     0.809594     0.549875     0.777811    -0.618493    -0.606181    -0.770518    -0.430432     0.844612    -0.579237     0.555429    -0.759307    -0.905282            0
    0.112888    -0.758996     0.953597     0.792853    -0.805734     0.796955    -0.438145     0.395925    0.0556362     0.828083     0.123171    0.0263063     0.153338      0.10283     0.148532    -0.631043     0.759587     -0.42852     -0.45944    -0.024881     0.509998     -0.47742     0.592343     -0.13062     0.200183    -0.011781     0.248397    -0.644746    -0.281297     0.280072    -0.460497     0.674939    -0.632104       0.6101    -0.768443     0.273943     -0.30743     0.285698     0.166091    -0.912774    -0.968012     0.572272    -0.917828     0.878697    -0.935091   -0.0817176     -0.96601     0.685666     0.807455   -0.0499469    -0.683037    -0.868343    -0.200281     0.656149    0.0577924     0.895005    -0.879378     -0.60225     0.558889     0.228232  -0.00292523    0.0845277     0.654724     0.756446            0
   -0.166997     0.840867   -0.0807509    0.0960066    -0.831421    -0.619376    -0.704204   -0.0532717    -0.388339    -0.118131     0.665086    -0.470702     -0.73716    0.0794118     0.396989   -0.0721122     0.270994     0.817729   -0.0718915     0.688622    -0.240928    -0.908246    -0.547588     0.235973     0.199912     0.727737    -0.534293     0.448125    -0.873275     0.637837    -0.235249     0.927002    -0.727936    -0.631396    -0.340986     -0.61932       1.0115     0.327515  0.000828226    -0.656974    -0.579756     0.354651    -0.365081     0.504154   -0.0215642    -0.286842    0.0125707    0.0106372     0.219186      0.38892     0.239517     0.157229  -0.00209684    -0.232274    -0.211789     0.841843     0.054303    -0.412238    -0.649952       0.7244     0.382622    -0.876671    -0.310536     0.168536            0
